tree
version=v4
num_class=1
num_tree_per_iteration=1
label_index=0
max_feature_idx=135
objective=lambdarank
feature_names=Column_0 Column_1 Column_2 Column_3 Column_4 Column_5 Column_6 Column_7 Column_8 Column_9 Column_10 Column_11 Column_12 Column_13 Column_14 Column_15 Column_16 Column_17 Column_18 Column_19 Column_20 Column_21 Column_22 Column_23 Column_24 Column_25 Column_26 Column_27 Column_28 Column_29 Column_30 Column_31 Column_32 Column_33 Column_34 Column_35 Column_36 Column_37 Column_38 Column_39 Column_40 Column_41 Column_42 Column_43 Column_44 Column_45 Column_46 Column_47 Column_48 Column_49 Column_50 Column_51 Column_52 Column_53 Column_54 Column_55 Column_56 Column_57 Column_58 Column_59 Column_60 Column_61 Column_62 Column_63 Column_64 Column_65 Column_66 Column_67 Column_68 Column_69 Column_70 Column_71 Column_72 Column_73 Column_74 Column_75 Column_76 Column_77 Column_78 Column_79 Column_80 Column_81 Column_82 Column_83 Column_84 Column_85 Column_86 Column_87 Column_88 Column_89 Column_90 Column_91 Column_92 Column_93 Column_94 Column_95 Column_96 Column_97 Column_98 Column_99 Column_100 Column_101 Column_102 Column_103 Column_104 Column_105 Column_106 Column_107 Column_108 Column_109 Column_110 Column_111 Column_112 Column_113 Column_114 Column_115 Column_116 Column_117 Column_118 Column_119 Column_120 Column_121 Column_122 Column_123 Column_124 Column_125 Column_126 Column_127 Column_128 Column_129 Column_130 Column_131 Column_132 Column_133 Column_134 Column_135
feature_infos=[0:75] [0:6] [0:12] [0:12] [0:75] [0:1] [0:1] [0:1] [0:1] [0:1] [0:8695] [0:3233] [0:6530] [2:183] [3:12046] [-2.654634952545166:97.808029174804688] [3.776979923248291:513.52508544921875] [1.8190599679946899:497.33279418945312] [-0.28251400589942932:362.45687866210938] [-2.7264020442962646:97.741981506347656] [0:136425] [0:91] [0:754] [0:16] [0:136425] [0:1819] [0:83] [0:273] [0:6] [0:1819] [0:1819] [0:83] [0:481] [0:12] [0:1819] [0:1819] [0:83] [0:377] [0:8] [0:1819] [0:392502.25] [0:328.6875] [0:37355.5546875] [0:16] [0:393129] [0:60.338344573974609] [0:3] [0:2] [0:1] [0:60.072654724121094] [0:1] [0:1] [0:1] [0:0.5] [0:0.80096900463104248] [0:1] [0:1] [0:1] [0:0.60000002384185791] [0:0.80096900463104248] [0:1] [0:1] [0:1] [0:0.5] [0:0.80096900463104248] [0:0.25] [0:0.25] [0:0.25] [0:0.090000003576278687] [0:0.055555999279022217] [-613.3594970703125:148615.796875] [0:717.094482421875] [0:4601.94677734375] [-0.56502902507781982:110.76775360107422] [-614.647705078125:144756.5625] [-423.65652465820312:3037.892578125] [0:717.094482421875] [0:2114.8857421875] [-0.56502902507781982:57.064174652099609] [-424.45330810546875:3045.092529296875] [0:6204.7685546875] [0:717.094482421875] [0:2872.29345703125] [0:66.524620056152344] [0:6195.4248046875] [-212.78927612304688:3822.230712890625] [0:717.094482421875] [0:2300.973388671875] [-0.56502902507781982:57.064174652099609] [-220.60838317871094:3827.064697265625] [0:8555367] [0:15148.5185546875] [0:1535871.125] [0:780.37469482421875] [0:8529620] [0:1] [0:1] [0:1] [0:1] [0:1] [0:1] [0:1] [0:1] [0:1] [0:1] [-13.502946853637695:285.02774047851562] [0:65.075950622558594] [0:70.284912109375] [-0.47871699929237366:58.453884124755859] [-13.53960132598877:277.6416015625] [-213.85342407226562:0] [-141.71241760253906:0] [-201.16816711425781:0] [-197.71842956542969:0] [-214.28927612304688:0] [-199.74589538574219:0] [-138.20396423339844:0] [-195.72248840332031:0] [-207.12921142578125:0] [-199.9857177734375:0] [-237.54978942871094:0] [-169.91323852539062:0.70560097694396973] [-237.08921813964844:0.70556998252868652] [-226.41989135742188:0] [-237.65135192871094:0] [1:22] [5:1064] [-2083778048:314131552] [0:178] [105:65534] [1:65535] [0:254] [0:254] [0:6562341] [0:1731553] [0:980000000]
tree_sizes=13824 13766 13777 13776 13803 13787 13819 13812 13808 13814 13832 13824 13818 3509 14516 3195 13834 13800 13836 14394 13834 3096 13835 13837 3213 13815 13930 14415 13971 13840 14415 13986 13844 3316 13845 14460 14029 13824 14454 13829 3324 14046 14550 13858 14484 13969 3434 13869 14553 13878 14476 14045 3326 5536 14490 5547 14470 14592 5558 13839 14504 14067 14595 14514 5340 13873 14507 14011 14617 3319 5338 13868 14539 11279 14573 14048 14612 14265 14534 13918 1213 14062 14570 10977 14643 5341 1216 14047 14569 11228 1214 14306 14646 13927 1213 14352 14594 10912 14073 14553 14646 5219 1217 13932 14602 14103 1217 11045 14342 1213 14639 14091 14636 1217 14382 10825 14673 13955 1215 14133 14586 14603 5453 10853 14673 14145 1216 14336 1215 14638 13965 11087 14676 14132 14569 14375 1213 1217 5353 14642 14160 14710 10857 1216 14405 1219 13990 14579 14173 14692 14660 14413 1218 11098 14211 14722 1217 14029 5244 14615 14733 14202 1220 10903 14390 14646 1218 14210 14738 1217 14438 14678 14044 14605 14726 5252 11003 14225 1220 1223 10679 14403 14736 14251 1220 14699 5367 1222 11348 14249 14770 14076 1220 14418 1222 11468 14773 1221 14271 1221 14109 14784 14433 14644 1223 14707 14320 11283 5453 14770 1223 1217 14448 11135 14289 14787 1222 14123 1220 14478 11377 14818 5356 1223 14300 14824 1219 11508 1220 14344 1221 14434 14803 11264 1221 14160 5362 14718 14875 14333 14634 1221 11270 14487 1219 14876 14160 1222 14473 11296 14355 1223 14869 5365 14686 10952 1222 14398 14899

Tree=0
num_leaves=127
num_cat=0
split_feature=133 133 133 133 133 133 133 133 133 133 133 133 133 133 133 133 133 133 133 133 133 133 133 133 133 133 133 133 133 133 133 133 133 133 133 133 133 133 133 133 133 133 133 133 133 133 133 133 133 133 133 133 133 133 133 133 133 133 133 133 133 133 133 133 133 133 133 133 133 133 133 133 133 133 133 133 133 133 133 133 133 133 133 133 133 133 133 133 133 133 133 133 133 133 133 133 133 133 133 133 133 133 133 133 133 133 133 133 133 133 133 133 133 133 133 133 133 133 133 133 133 133 133 133 133 133
split_gain=2435.9 61.6804 16.4019 4.16312 1.17259 0.886958 0.68781 0.605751 0.51162 0.435122 0.366383 0.677817 0.707599 0.371125 0.319204 0.293675 0.806335 0.495059 0.309278 0.302292 0.245816 0.244186 0.261008 0.232453 0.729988 0.319553 0.22459 0.481793 0.220338 0.252161 0.658267 0.831277 0.339949 0.295065 0.283198 0.278133 0.264141 0.209686 0.309727 0.217688 0.661606 0.202935 0.195538 0.195268 0.176301 0.170923 0.270601 0.200162 0.164041 0.70318 0.29195 0.200242 0.163895 0.275496 0.218569 0.160797 0.151813 0.272504 0.191622 0.143085 0.142685 0.141102 0.137241 0.135462 0.228007 0.230461 0.190427 0.15464 0.130897 0.130249 0.836152 0.556972 0.231016 0.177775 0.124952 0.12323 0.171894 0.222378 0.166565 0.120936 0.11923 0.118683 0.115698 0.115183 0.120942 0.117155 0.0975418 0.097058 0.0937494 0.092936 0.0832857 0.0788667 0.0722485 0.0997226 0.0719074 0.0698862 0.0692267 0.126569 0.0848253 0.0845456 0.0691788 0.0680104 0.258897 0.12993 0.0683462 0.0667527 0.0661536 0.175468 0.0616498 0.0590492 0.057869 0.0566686 0.152415 0.056443 0.0634935 0.0551261 0.105047 0.0762362 0.0746643 0.179067 0.054264 0.0513569 0.137162 0.048777 0.0478656 0.0472581
threshold=1.0000000180025095e-35 58.500000000000007 3.5000000000000004 521.00000000000011 6.5000000000000009 82.500000000000014 68.500000000000014 1.5000000000000002 129.50000000000003 69.500000000000014 235.50000000000003 443.50000000000006 467.00000000000006 176.50000000000003 6204.5000000000009 32.500000000000007 34.500000000000007 33.500000000000007 16.500000000000004 37.500000000000007 534.50000000000011 78.500000000000014 80.500000000000014 294.50000000000006 319.50000000000006 310.50000000000006 47623.500000000007 52653.500000000007 5063.0000000000009 1290.5000000000002 1677.5000000000002 1921.5000000000002 1118.5000000000002 1726.5000000000002 1184.5000000000002 1222.5000000000002 1078.5000000000002 2772.5000000000005 3608.0000000000005 2427.5000000000005 2351.0000000000005 143.50000000000003 229.50000000000003 2605.5000000000005 15.500000000000002 3227.5000000000005 3352.0000000000005 2852.5000000000005 701.50000000000011 668.50000000000011 938.50000000000011 993.00000000000011 328.50000000000006 345.50000000000006 374.50000000000006 180.50000000000003 83380.500000000015 67738.000000000015 215499.00000000003 36.500000000000007 251.50000000000003 2677.0000000000005 355.50000000000006 31.500000000000004 30.500000000000004 29.500000000000004 21.500000000000004 22.500000000000004 76.500000000000014 42.500000000000007 43.500000000000007 41.500000000000007 39.500000000000007 45.500000000000007 619.00000000000011 11412.500000000002 23475.500000000004 34043.500000000007 10141.500000000002 44.500000000000007 1854.0000000000002 5618.5000000000009 14.500000000000002 122.50000000000001 114.50000000000001 100.50000000000001 262.50000000000006 40.500000000000007 682.50000000000011 383.00000000000006 46.500000000000007 1162.0000000000002 63.500000000000007 66.500000000000014 10576.000000000002 110335.50000000001 845.50000000000011 812.50000000000011 781.00000000000011 741.50000000000011 3484.0000000000005 25.500000000000004 24.500000000000004 27.500000000000004 28.500000000000004 858.50000000000011 11.500000000000002 10.500000000000002 4608.5000000000009 97.500000000000014 455.50000000000006 27109.500000000004 29231.000000000004 89.500000000000014 91.500000000000014 8005.5000000000009 7218.0000000000009 7519.5000000000009 8934.5000000000018 9346.0000000000018 5920.5000000000009 496.50000000000006 478.00000000000006 134.50000000000003 132.50000000000003 12.500000000000002
decision_type=2 2 2 2 2 2 2 2 2 2 2 2 2 2 2 2 2 2 2 2 2 2 2 2 2 2 2 2 2 2 2 2 2 2 2 2 2 2 2 2 2 2 2 2 2 2 2 2 2 2 2 2 2 2 2 2 2 2 2 2 2 2 2 2 2 2 2 2 2 2 2 2 2 2 2 2 2 2 2 2 2 2 2 2 2 2 2 2 2 2 2 2 2 2 2 2 2 2 2 2 2 2 2 2 2 2 2 2 2 2 2 2 2 2 2 2 2 2 2 2 2 2 2 2 2 2
left_child=-1 2 7 5 -4 6 92 -2 83 -8 13 23 110 41 20 18 17 -17 44 59 -5 68 -23 60 25 -25 75 -28 29 32 -31 33 36 -32 91 -36 48 39 45 40 -33 123 55 -41 82 47 -47 -39 49 74 96 -52 -26 -54 62 -15 57 -29 95 -18 -12 -45 -55 64 65 66 -20 -68 -11 71 -71 72 -21 79 -22 78 -77 111 115 -72 -35 -30 106 84 85 109 -62 -74 -51 -56 -75 -34 -3 -94 -80 -58 97 98 99 -50 -48 102 -69 -103 -105 -98 107 -6 -40 113 -13 -78 -113 -7 -115 116 -16 -118 -117 -120 -83 122 -14 124 -10 -108
right_child=1 3 4 14 15 8 9 -9 10 21 11 12 121 42 26 16 19 -19 63 69 28 22 -24 24 52 -27 27 56 81 30 31 37 34 80 35 -37 -38 38 108 43 -42 -43 -44 61 -46 46 100 -49 50 88 51 -53 53 54 89 -57 58 -59 -60 -61 86 -63 -64 -65 -66 -67 67 101 -70 70 73 -73 87 90 -76 76 77 -79 94 -81 -82 120 -84 -85 -86 -87 -88 -89 -90 -91 -92 -93 93 -95 -96 -97 105 -99 -100 -101 -102 103 -104 104 -106 -107 125 -109 -110 -111 -112 112 -114 114 -116 118 117 -119 119 -121 -122 -123 -124 -125 -126 -127
leaf_value=-0.0028533647421512334 0.042004763817390711 0.065470717925637453 0.052988164444399591 0.087009827838613329 0.057988554461657349 0.068862776775652459 0.039971510591623988 0.046034322638710316 0.0635292574805712 0.05949359171472543 0.068897611807312006 0.046661263225427616 0.063558857628212909 0.051179732065656285 0.079155121887131266 0.053475477269608912 0.061231757961418054 0.032172361909197859 0.063333690151418071 0.051794958588813861 0.071108977635832502 0.043936222320377694 0.062620307794384891 0.063264524221920956 0.080856665739520606 0.04452290290313074 0.049000081300553638 0.077247666287263345 0.06408241885160508 0.082225480672924983 0.074570174137103262 0.078724459822587231 0.06204014558697394 0.062173662988911652 0.081756388138064143 0.064461791041123526 0.084451501926169584 0.057829007861244022 0.078630322669792529 0.088865164430768862 0.052452945407386535 0.070354270270502575 0.048982333894437638 0.067931777142127198 0.052450471671879252 0.05236527165894525 0.075139293852590522 0.075507078782784426 0.079450737783281669 0.062127951552666941 0.063125788040527028 0.074015035709448826 0.06134289188156538 0.071112006905951861 0.062465392049796745 0.063283176409632685 0.085588166563332554 0.06030597010507241 0.069990556124550532 0.071751149126026315 0.081437667047731588 0.083387528428674265 0.082310010316299045 0.069003366208748279 0.05163957159305313 0.070355794839698782 0.052136104087528438 0.058104120403041221 0.06797278882308308 0.076764136263672483 0.054795179452156999 0.037738675213236525 0.069792707863030976 0.063472557119855291 0.077892453543996418 0.083019215561443316 0.076807787640170364 0.083340631987765382 0.06144247270609933 0.040166015839326663 0.050907641970514873 0.075301519590647306 0.06357944250028337 0.07713306708405003 0.066436686130171549 0.075114437608365753 0.074404834902676201 0.058213572836411279 0.050049079571158596 0.071178007594970935 0.056287023172365371 0.050732950014042481 0.073914150696263448 0.064903248939278388 0.07301259023451441 0.077941041573770742 0.089008593720929313 0.069020455969870415 0.083194603473739637 0.071518405743110663 0.064693449409514533 0.054677293390250875 0.068416701186394521 0.065411540802766857 0.057562855959129203 0.078909840312915189 0.054247932128970888 0.063333770713865464 0.072974143714341452 0.064302473500692806 0.054640082043698447 0.059240096245152231 0.074804081766457212 0.077449158299755072 0.070982374924925984 0.084500803049449458 0.063169718151684484 0.075020492095962732 0.064975031170086767 0.081902012679147929 0.065957235556766233 0.065146663877397468 0.076920232098985852 0.061355611063428461 0.071836198418210831 0.057839215054958121
leaf_weight=33714.874598910246 213.25225407776452 13.918471811310157 110.43035496780794 3.661420533899217 85.177675241357065 14.653011138259901 3.2570987341459832 165.75920318621502 4.5526368451537591 17.628725414921071 9.0914616302470659 4.5201078936224821 3.3285061295027827 2.9873969118052619 9.6597390066308453 5.9410500122758076 10.363363307260441 5.0413062525331043 49.324815299813054 7.6367935923044588 16.954055321824857 4.6350153129314995 3.1323701456421986 6.9316927316831407 4.562584334096754 3.385124696069397 1.8664576396404324 5.8017713553272205 8.2065678775834368 30.727643783509848 3.733524319715797 19.970492823238605 4.7924135951325324 6.5708040693425556 3.9555299543426354 5.638660108030308 5.4325644748168989 1.8669595484825574 19.901311593712311 7.6453861045738432 2.723243400512728 29.913623465748969 2.9813658092461983 2.5615769840878784 12.30905445537064 3.2088341923663375 3.3365716334083118 11.249602374533422 7.1693795347819158 2.9538387614884405 7.1516691865690545 10.305307896240263 6.3937355390808071 4.3431692018639279 3.6882172765908789 33.694775633775862 5.6891122303204629 4.0168946270132437 5.0881789571722029 4.698032783024245 6.5757532125571769 3.4867394551692996 7.3948983151276479 5.7298788774060077 6.0067038800043511 7.1027351982193059 7.0030238768667905 16.90712005450041 6.1357485923217601 5.3492629423853932 2.8743816182250148 4.4697086734813629 3.7842289332475048 4.4993890589394132 11.322006697475443 26.604759715948603 4.6298600460577308 7.9073639894486396 2.1511053338181219 2.7781276089372113 3.6546807533595711 5.6016659166780292 11.127518684457753 9.8441586020780942 10.590396656290975 22.035455451441521 19.702480483218096 3.4685210826573893 3.5215698223910294 17.99063979650964 38.876714417878247 2.2738296765019186 8.421250356899689 4.8322805155185042 3.574110173387453 6.2919621123728575 1.9814989791775577 5.189402006333693 5.309697459510061 6.3206186117895413 3.0192210485984106 12.736463286972141 9.5088990833901352 6.4558967339398787 4.8630816000513732 9.3939316158648563 14.247103257337583 18.729545222828165 6.3561961639497886 3.4956835011544163 4.5702773246448487 2.3392526104580611 4.802024848642759 5.6164381474372957 11.708670144202186 5.9787226090556924 2.1476643710630006 3.6866386650071945 2.1922953873872757 5.4379811643157154 2.1499945799587294 6.0645050724269822 4.5414472741540521 10.238849633868083 2.801074681483442 25.657298657184583
leaf_count=2190256 11723 723 5571 127 4454 674 132 8506 198 867 493 185 177 181 451 288 494 298 2482 459 814 246 201 360 173 181 82 265 424 1426 175 855 222 343 188 292 223 131 958 335 138 1579 171 137 636 154 157 506 335 148 330 488 333 210 140 1675 206 161 261 221 301 166 381 288 314 318 436 832 245 193 179 214 210 188 470 1205 234 403 99 194 169 182 627 434 552 1062 956 193 177 942 2020 117 405 265 139 273 98 238 229 327 127 658 388 330 306 480 753 918 359 242 194 96 219 198 539 289 130 180 124 201 104 310 233 479 137 1408
internal_value=0 0.0604492 0.0516223 0.0714263 0.05754 0.0674358 0.0620258 0.0437671 0.0686408 0.0573701 0.067303 0.0691807 0.0615249 0.0648671 0.0751033 0.0588201 0.0564774 0.0436966 0.0596182 0.0580581 0.0741462 0.0591673 0.051471 0.071138 0.0690952 0.0571151 0.077362 0.0735651 0.073962 0.0743408 0.0758303 0.073851 0.0725749 0.0625397 0.0659976 0.0715921 0.0737532 0.0757015 0.0735642 0.078576 0.0755719 0.0678481 0.0612966 0.0835546 0.05821 0.0692844 0.0642015 0.0729909 0.0730895 0.0704215 0.0748448 0.069554 0.0718806 0.0708519 0.0726712 0.0622975 0.0752704 0.0703167 0.0781198 0.064513 0.0742968 0.0768417 0.0781667 0.0614928 0.0611339 0.0616346 0.0610546 0.0590987 0.0616828 0.0567396 0.0579935 0.0532177 0.0578644 0.0559455 0.0738251 0.078708 0.0803986 0.0768556 0.0764614 0.0476052 0.0581471 0.0682731 0.0586675 0.0720777 0.0713469 0.0722511 0.0761647 0.0642552 0.055559 0.0696957 0.0570324 0.0584016 0.0679866 0.0706287 0.0686654 0.0815722 0.0774564 0.0759331 0.0778412 0.0757341 0.0701772 0.0600648 0.0618163 0.0581415 0.0620394 0.080669 0.0582875 0.058952 0.0772611 0.0704724 0.0506727 0.0724992 0.0697058 0.0711469 0.0730788 0.077995 0.0759556 0.0706581 0.0803169 0.0770386 0.0727098 0.0686046 0.0712692 0.0635868 0.0666934 0.056557
internal_weight=0 1591.43 882.11 709.323 503.098 340.159 61.961 379.011 278.198 34.789 200.254 113.085 23.0248 87.1697 369.164 392.668 99.7809 10.9824 292.887 88.7985 259.298 31.5319 7.76739 90.0598 54.6901 10.3168 109.866 28.7544 255.637 239.679 130.013 99.2851 109.666 13.959 16.6604 9.59419 93.0055 85.3261 48.9387 36.3874 22.6937 47.5062 39.6635 13.6937 167.248 22.6812 9.56463 13.1166 87.573 34.7515 52.8215 17.457 44.3732 39.8107 33.4169 36.6822 26.8879 9.81867 17.0693 15.0614 35.3697 6.04832 11.7381 125.639 119.909 113.902 106.799 57.4745 23.7645 73.7371 54.3779 19.3593 14.8895 49.0286 28.2761 81.1115 46.2833 19.6785 34.8283 5.65251 10.2255 15.9582 154.939 77.9438 68.0997 57.5093 26.2782 7.25275 6.47541 21.6789 43.3761 7.06624 27.172 13.2535 5.72522 11.9811 35.3645 23.9891 18.7997 13.49 6.35579 50.4715 26.416 24.0554 11.319 11.3754 143.812 103.907 26.2575 35.4738 9.09039 11.7711 7.14128 31.9781 17.3251 29.103 15.494 5.8343 13.609 7.63028 7.75166 13.9345 7.86995 17.5926 7.35371 39.9044
internal_count=2270296 80040 46099 33941 25870 16774 3084 20229 13690 1691 9989 5569 1099 4420 17167 20299 5151 586 15148 4565 12149 1559 447 4470 2720 541 5018 1248 12022 11312 6136 4710 5176 687 819 480 4357 4023 2392 1631 993 2393 2027 638 8796 1075 438 637 4134 1609 2525 818 2179 2006 1673 1856 1166 426 740 715 1750 303 591 6352 6064 5750 5432 2950 1112 3850 2774 1076 862 2581 1284 3770 2157 952 1613 373 512 710 8160 3701 3267 2715 1257 403 325 1082 2208 339 1393 670 238 479 1707 1129 891 662 284 2514 1220 1294 636 578 7533 5372 1317 1653 379 549 315 1411 737 1375 761 310 614 325 286 720 410 814 335 2161
is_linear=0
shrinkage=0.05


Tree=1
num_leaves=127
num_cat=0
split_feature=133 133 133 133 133 133 133 133 133 133 133 133 133 133 133 133 133 133 133 133 133 133 133 133 133 133 133 133 133 133 133 133 133 133 133 133 133 133 133 133 133 133 133 133 133 133 133 133 133 133 133 133 133 133 133 133 133 133 133 133 133 133 133 133 133 133 133 133 133 133 133 133 133 133 133 133 133 133 133 133 133 133 133 133 133 133 133 133 133 133 133 133 133 133 133 133 133 133 133 133 133 133 133 133 133 133 133 133 133 133 133 133 133 133 133 133 133 133 133 133 133 133 133 133 133 133
split_gain=23822.5 514 70.0401 57.0016 14.586 10.0775 4.48058 4.26649 4.12247 3.53088 3.647 2.64277 2.22262 1.32016 2.09813 1.29546 1.55743 1.26218 1.48414 1.20256 1.11838 1.10753 1.04894 1.03021 3.06433 1.01727 1.27759 1.00818 0.979626 1.9461 0.973293 3.01619 1.2167 0.910959 1.85454 1.79013 0.867342 0.853405 0.864914 1.42535 1.40432 0.76637 0.751016 0.687807 1.52159 0.677213 1.07078 2.3888 0.659671 2.85623 0.992747 0.64271 0.610344 0.597844 0.593066 0.541205 0.523662 2.55608 1.03839 0.521158 0.782376 0.500854 0.491175 0.475424 0.468708 0.460573 0.638009 0.451008 0.443581 0.437118 0.43672 0.758862 0.436286 0.790627 0.396273 0.389573 0.387573 0.387029 1.78441 1.0292 2.30576 1.38119 0.984699 0.363772 0.661599 0.508929 0.455747 0.401027 0.363148 0.381028 0.360063 0.359524 0.355795 0.352337 0.504229 0.468764 0.35061 0.34976 0.697354 0.561285 0.336888 0.324484 0.32331 0.291342 0.461805 0.280872 0.276787 0.272452 0.272205 0.27109 0.268071 0.267893 0.264321 0.257622 0.65934 0.255782 0.475545 0.303887 0.249824 0.241692 1.35585 0.73402 0.691816 0.281024 0.581923 0.6911
threshold=1.0000000180025095e-35 68.500000000000014 3.5000000000000004 534.50000000000011 5440.0000000000009 17.500000000000004 1.5000000000000002 47623.500000000007 229.50000000000003 12076.500000000002 9346.0000000000018 6204.5000000000009 10141.500000000002 7519.5000000000009 8608.5000000000018 1518.0000000000002 635.50000000000011 701.50000000000011 1430.5000000000002 2.5000000000000004 714.50000000000011 14791.000000000002 1402.5000000000002 21.500000000000004 23.500000000000004 240.50000000000003 294.50000000000006 23475.500000000004 215499.00000000003 135082.50000000003 7.5000000000000009 11.500000000000002 4.5000000000000009 122.50000000000001 84.500000000000014 125.50000000000001 5201.5000000000009 119.50000000000001 110.50000000000001 114.50000000000001 116.50000000000001 60.500000000000007 335.00000000000006 1374.5000000000002 1317.0000000000002 4868.5000000000009 4485.5000000000009 4242.0000000000009 403.50000000000006 383.00000000000006 496.50000000000006 319.50000000000006 52653.500000000007 10576.000000000002 268.50000000000006 82.500000000000014 2540.0000000000005 2772.5000000000005 2351.0000000000005 1995.0000000000002 1921.5000000000002 668.50000000000011 310.50000000000006 235.50000000000003 899.50000000000011 27109.500000000004 37183.500000000007 6566.5000000000009 508.50000000000006 11412.500000000002 1184.5000000000002 1222.5000000000002 3834.5000000000005 4087.5000000000005 1601.5000000000002 64.500000000000014 58924.500000000007 46.500000000000007 47.500000000000007 45.500000000000007 44.500000000000007 41.500000000000007 40.500000000000007 28.500000000000004 29.500000000000004 26.500000000000004 27.500000000000004 25.500000000000004 6.5000000000000009 5.5000000000000009 8005.5000000000009 103.50000000000001 1253.0000000000002 35.500000000000007 33.500000000000007 34.500000000000007 16.500000000000004 434.50000000000006 419.50000000000006 443.50000000000006 2049.0000000000005 393.00000000000006 374.50000000000006 31.500000000000004 30.500000000000004 6920.0000000000009 3484.0000000000005 78.500000000000014 29231.000000000004 31187.000000000004 845.50000000000011 16144.500000000002 20913.000000000004 781.00000000000011 758.50000000000011 58.500000000000007 51.500000000000007 50.500000000000007 273.50000000000006 161.50000000000003 169.50000000000003 165.50000000000003 156.50000000000003 129.50000000000003 143.50000000000003 149.50000000000003
decision_type=2 2 2 2 2 2 2 2 2 2 2 2 2 2 2 2 2 2 2 2 2 2 2 2 2 2 2 2 2 2 2 2 2 2 2 2 2 2 2 2 2 2 2 2 2 2 2 2 2 2 2 2 2 2 2 2 2 2 2 2 2 2 2 2 2 2 2 2 2 2 2 2 2 2 2 2 2 2 2 2 2 2 2 2 2 2 2 2 2 2 2 2 2 2 2 2 2 2 2 2 2 2 2 2 2 2 2 2 2 2 2 2 2 2 2 2 2 2 2 2 2 2 2 2 2 2
left_child=-1 2 6 8 15 30 -2 9 33 10 11 -6 -12 67 90 16 -5 61 20 -8 -19 -11 43 -7 -25 63 54 111 29 52 32 -32 -4 34 55 -35 45 38 91 -40 -41 77 51 44 64 46 47 56 49 102 97 62 -9 -14 -27 107 58 -58 59 60 74 -18 -28 -10 110 -29 108 -13 -52 -55 -66 -72 106 -74 -17 -43 -54 79 -79 80 81 82 83 85 -85 87 -87 -26 89 -34 -15 -36 -73 94 103 -96 -33 98 -50 -99 -61 -51 -44 104 -86 -69 -59 -3 -67 -110 113 -23 -113 114 -22 116 117 -80 -56 122 121 -121 123 -37 -125 -126
right_child=1 3 5 4 7 23 19 28 25 21 12 13 53 14 -16 36 17 18 -20 -21 22 27 -24 24 41 26 42 65 -30 -31 31 96 88 35 37 119 -38 -39 39 40 -42 75 48 -45 -46 -47 -48 -49 50 101 68 -53 76 69 118 -57 57 72 -60 100 -62 -63 -64 -65 70 66 -68 105 -70 -71 71 92 73 -75 -76 -77 -78 78 115 -81 -82 -83 -84 84 93 86 -88 -89 -90 -91 -92 -93 -94 -95 95 -97 -98 99 -100 -101 -102 -103 -104 -105 -106 -107 -108 -109 109 -111 -112 112 -114 -115 -116 -117 -118 -119 -120 120 -122 -123 -124 124 125 -127
leaf_value=-0.01832116837478899 0.031806069781589841 0.053244205198812372 0.042629753130251857 0.06113778958389509 0.069406585777315732 0.048082830175999104 0.034655792057243909 0.076567801730487231 0.054745058000936077 0.056908327815341546 0.076283124292979232 0.054800388555011049 0.057417344115065133 0.070704453588351132 0.05741243953715798 0.062045599436599375 0.054915241319642705 0.065541862104410528 0.052203705780435462 0.037830742614406283 0.057006536272347301 0.066255102357540549 0.065083729391387693 0.038208549942428539 0.046488302711981996 0.053876855586685285 0.057078498929152323 0.055651159267660177 0.06270726985602601 0.076842367369819642 0.044342251808484244 0.039386185963947135 0.038829784688117125 0.059675911491387436 0.049338192638732806 0.049333519038151918 0.051146719679828513 0.042237507247323169 0.056672443843217429 0.037877070740177363 0.052331717479741961 0.050123498696393889 0.05498828170185837 0.05163625691305606 0.06369801958355531 0.064806390564967287 0.054646999904349673 0.068642302870223507 0.055406369620703756 0.041870126608495761 0.047121547584664976 0.060863012998261551 0.062050539571521547 0.07099720119253887 0.046775327650256805 0.057520614594055809 0.053018339287628974 0.060242599084498895 0.064375351234378417 0.054005985864400502 0.065359541587385259 0.04894581017026884 0.048369984784012818 0.063462126801073729 0.055500625922128503 0.068690712285166919 0.057800286246915439 0.062312794638581526 0.05382430842607451 0.064317072721799526 0.062264262355789413 0.051180623612261167 0.055089704492839509 0.062735479687624177 0.05850145511928774 0.046390108126103738 0.067779142034335757 0.032832822848771703 0.044688986133404093 0.053049399033578526 0.027946835471806788 0.050866340358326413 0.037270775535165578 0.039245789395582875 0.045856803568594402 0.052627170850828388 0.046857358970519111 0.04139458309493893 0.037816425372107158 0.041515065965364084 0.065503659456815161 0.046576643523448702 0.057496046221746505 0.04680477742527818 0.036491811567943219 0.044066728283341135 0.042342437827229656 0.050278868422960088 0.062149963051897572 0.057027191273190295 0.058652342226677173 0.048047325133621546 0.06067261676558619 0.047087780833783274 0.039527933789441555 0.05768391948732491 0.063253792342161691 0.049771216501662822 0.057845577754705439 0.063274490721799179 0.060109632231106574 0.061664430657976159 0.065373180978320303 0.056253907677700977 0.06372590613722233 0.042444870540712214 0.047412456205220596 0.038794305258243317 0.051170141038179406 0.049489036356085453 0.052206287876620586 0.039918566392125474 0.057473744227102677 0.054562140523826852 0.047169935731171758 0.053291219749802166
leaf_weight=47871.746660016826 1463.4015775988228 257.34653630806133 412.7481421707198 297.6368770506233 126.83506196737289 429.92101963423193 778.74825227807742 17.958330583758652 23.473891097120941 169.59222769737244 98.926801756024361 65.510035786777735 17.036427966319025 54.336613202467561 81.027084805071354 117.41380450502038 110.62099236994982 48.940583027899265 114.87883196398616 483.36016547563486 124.67532581090927 69.350538656115532 48.240521758794785 138.49169634981081 184.63686665444402 271.48010425642133 73.666156149469316 62.173913384845946 61.724936620797962 72.421899449080229 835.7182194305351 580.82839137222618 289.68968714843504 79.369515437632799 458.58906133426353 82.859818562865257 29.297265109606087 42.61450331332162 96.289263352751732 25.252656205557287 50.218627754598856 145.22021824913099 255.583289435599 46.993497978895903 100.43556107208133 65.571339002810419 101.40769632160664 75.21940004453063 71.338705573230982 40.595837069675326 32.695814609527588 103.95310716051608 33.896790117025375 47.664134569000453 39.191353764384985 63.57344601303339 162.62535723485053 256.00666699535213 134.53785477997735 48.297419675625861 72.548893678933382 51.496526205446571 20.752971637411974 46.878634236752987 439.44104833342135 16.909417528659105 122.39372226595879 62.322559826076031 100.72441745176911 50.365806825459003 75.362576931715012 30.585348597262055 91.947197081521153 53.476980939507484 240.25613981415518 134.67701365426183 228.94997727870941 31.966265864670277 107.75064223865047 48.944777976255864 18.110344072629232 126.19810157158645 36.583439504494891 47.958230075892061 85.973347716033459 57.998480906710029 83.494949946179986 48.867431998951361 274.82855339348316 242.84787346370285 85.876791693270206 158.62631228752434 82.341286790557206 244.34299633908086 34.574132588808425 49.903030288871378 121.2287351260893 36.643773015588522 82.868597294960637 193.63971844222397 202.92462476715446 44.632740713655949 27.728937743348069 129.83996794559062 43.360511380247772 69.114819459617138 108.7255341373384 72.346036161994562 30.599716048687696 92.521502859890461 158.88814166933298 168.77046311832964 67.158711567521095 171.90399077162147 51.625868203118443 72.555833362042904 180.99462274368852 27.430027906550094 184.87878591148183 44.520918686874211 454.22365103743505 36.426959495060146 65.214039085432887 182.71688500675373 82.407192796468735 104.68602863885462
leaf_count=2190256 11723 1244 2296 974 416 1903 5226 82 171 412 201 174 99 180 246 267 310 110 309 3280 374 145 110 885 771 835 360 234 261 168 3981 3424 1753 197 1704 237 168 196 278 129 227 560 772 140 241 267 347 195 248 152 172 325 125 139 135 200 428 948 348 136 174 325 181 167 1574 96 270 157 265 108 188 137 278 154 930 532 612 200 604 188 194 586 193 306 318 329 330 329 1391 1522 167 533 271 1134 298 250 579 136 241 789 545 165 140 576 314 250 329 447 103 249 384 397 143 467 178 301 1045 171 613 165 2172 159 243 814 325 371
internal_value=0 0.0495827 0.0401956 0.0573214 0.0605396 0.0435622 0.0336888 0.0640134 0.0527544 0.0628138 0.0652563 0.0630845 0.0707875 0.0611671 0.0638176 0.058694 0.0578078 0.0572094 0.057664 0.0358717 0.0581187 0.0604948 0.0578457 0.0458547 0.0453941 0.0546707 0.0544088 0.0614605 0.0685189 0.0695345 0.041476 0.0423127 0.0404215 0.0514125 0.0504675 0.0524348 0.0596779 0.0491295 0.0495018 0.05264 0.0474952 0.0459067 0.0553696 0.0575734 0.0577993 0.0598223 0.059626 0.0599489 0.0547473 0.0531304 0.0558979 0.0581506 0.0676497 0.0660626 0.0523054 0.0532966 0.0595096 0.0584769 0.0603611 0.0595686 0.0606252 0.0530191 0.0551644 0.0605536 0.0572772 0.0595206 0.0604373 0.0581896 0.0521817 0.0675651 0.0563639 0.0583787 0.0602169 0.0579013 0.0596649 0.0483271 0.0670404 0.045499 0.0441884 0.0459434 0.0456515 0.0459247 0.0453294 0.045621 0.0448927 0.0468562 0.0492224 0.0454223 0.0392925 0.0400543 0.0675191 0.0486285 0.0557856 0.0453533 0.0443212 0.0409665 0.0398967 0.0571874 0.0590303 0.0559534 0.0577591 0.045105 0.0555446 0.0454147 0.043735 0.0598788 0.0611402 0.0524821 0.0627422 0.0619252 0.0584078 0.0635232 0.0627201 0.0576312 0.0589742 0.0451222 0.0457366 0.0434929 0.0504015 0.051889 0.0511439 0.0451823 0.052659 0.0519654 0.0525551 0.050595
internal_weight=0 17689 7993.19 9695.77 5687.76 5267.68 2725.51 1973.44 4008.01 1558.49 759.016 545.023 213.993 418.188 221.24 3714.32 1954.07 1656.43 1494.31 1262.11 1379.43 799.47 1330.49 2509.79 2079.87 1650.73 1580.37 629.878 414.952 353.227 2757.89 1537.78 1220.11 2357.28 1224.86 1132.43 1760.26 831.59 788.976 171.761 75.4713 1941.38 1084.82 1282.25 1235.26 1730.96 1665.39 1563.98 886.452 368.541 517.911 198.372 280.805 115.066 495.55 393.266 1488.76 672.782 815.979 681.441 430.219 162.118 94.4191 70.3525 1134.82 324.598 262.424 196.947 133.42 98.0299 627.73 188.289 510.156 145.424 357.67 279.897 262.847 1661.48 420.697 1240.79 1191.84 1173.73 1047.53 1010.95 635.952 374.998 141.493 233.504 807.366 532.538 140.213 617.215 112.927 587.994 343.651 84.4772 702.057 384.491 154.207 230.283 251.222 85.2286 283.312 259.174 129.334 131.437 364.732 329.693 140.031 123.121 507.093 305.28 235.929 348.205 176.301 388.731 316.175 135.181 224.07 1053.06 535.172 80.9479 517.884 452.67 369.81 187.093
internal_count=2270296 80040 47492 32548 17040 27263 20229 5434 15508 4186 2137 1590 547 1174 593 11606 6092 5118 4483 8506 4174 2049 4064 12317 10414 5867 5529 1637 1248 987 14946 7984 6962 9641 4958 4683 5514 3067 2871 634 356 9529 3946 3954 3814 5346 5079 4732 3080 1229 1851 866 819 346 1583 1891 4537 2137 2400 2052 1371 635 541 338 3573 952 718 581 437 247 2170 596 1709 432 1197 1092 737 8437 2321 6116 5928 5734 5148 4955 3196 1759 659 1100 4666 3275 347 2237 408 2890 1756 548 4003 1414 489 925 681 317 912 1208 632 407 1277 1691 448 352 1403 685 540 1019 552 2121 1820 775 748 4486 2496 324 1990 1747 1510 696
is_linear=0
shrinkage=0.05


Tree=2
num_leaves=127
num_cat=0
split_feature=133 133 133 133 133 133 133 133 133 133 133 133 133 133 133 133 133 133 133 133 133 133 133 133 133 133 133 133 133 133 133 133 133 133 133 133 133 133 133 133 133 133 133 133 133 133 133 133 133 133 133 133 133 133 133 133 133 133 133 133 133 133 133 133 133 133 133 133 133 133 133 133 133 133 133 133 133 133 133 133 133 133 133 133 133 133 133 133 133 133 133 133 133 133 133 133 133 133 133 133 133 133 133 133 133 133 133 133 133 133 133 133 133 133 133 133 133 133 133 133 133 133 133 133 133 133
split_gain=15568.2 462.725 60.5946 56.3754 16.637 13.2547 5.35393 2.47336 2.13565 1.77748 1.64115 1.60672 1.56664 1.76857 1.12098 1.73361 0.926838 0.922078 1.4145 1.37315 0.893012 0.984725 0.815704 0.713146 0.723916 0.779959 0.634905 0.664803 1.17686 0.619522 1.00301 0.706475 0.607008 0.906807 1.04105 1.90073 1.07637 0.571415 0.491773 0.752966 0.534334 0.65513 0.487016 0.454343 0.452285 0.446933 0.41614 1.3247 0.72294 0.986553 0.398011 0.3893 0.368463 0.651295 0.622012 1.72027 0.371581 0.741208 0.365888 0.352118 0.34856 0.343276 2.08788 0.792182 0.67506 0.58014 0.716311 0.399492 0.565809 0.343134 1.32373 0.328771 0.322446 0.291083 0.898486 1.24319 0.630496 0.572979 0.482954 0.343166 0.273648 0.2697 0.337753 0.267256 0.264114 0.25681 0.290732 0.247856 0.422693 0.245861 0.484839 0.31229 0.242152 0.511751 0.234181 0.232971 0.227729 0.606256 0.224341 0.377839 0.368522 1.27783 0.222236 0.44733 0.22086 0.256897 0.220311 0.218951 0.218608 0.2178 0.492411 0.241666 0.417111 0.769893 0.204679 0.198083 0.19714 0.196972 0.364017 0.359676 0.558294 0.303652 0.196443 0.195712 0.175592 0.333261
threshold=1.0000000180025095e-35 60.500000000000007 319.50000000000006 3.5000000000000004 4087.5000000000005 17.500000000000004 1.5000000000000002 1317.0000000000002 110.50000000000001 3834.5000000000005 7.5000000000000009 10.500000000000002 47623.500000000007 23475.500000000004 21.500000000000004 23.500000000000004 2.5000000000000004 125.50000000000001 122.50000000000001 114.50000000000001 3484.0000000000005 2605.5000000000005 2427.5000000000005 215499.00000000003 135082.50000000003 52653.500000000007 20913.000000000004 12076.500000000002 7519.5000000000009 235.50000000000003 262.50000000000006 284.50000000000006 28.500000000000004 35.500000000000007 44.500000000000007 45.500000000000007 42.500000000000007 33.500000000000007 78.500000000000014 80.500000000000014 68.500000000000014 64.500000000000014 31.500000000000004 119.50000000000001 3608.0000000000005 40.500000000000007 1430.5000000000002 1482.0000000000002 1402.5000000000002 1374.5000000000002 4.5000000000000009 1601.5000000000002 6204.5000000000009 6566.5000000000009 5440.0000000000009 5201.5000000000009 4868.5000000000009 4723.5000000000009 25292.000000000004 5618.5000000000009 5.5000000000000009 180.50000000000003 185.50000000000003 195.50000000000003 200.50000000000003 172.50000000000003 165.50000000000003 156.50000000000003 161.50000000000003 46.500000000000007 47.500000000000007 169.50000000000003 34.500000000000007 521.00000000000011 635.50000000000011 701.50000000000011 496.50000000000006 714.50000000000011 602.50000000000011 328.50000000000006 116.50000000000001 16.500000000000004 11.500000000000002 682.50000000000011 8.5000000000000018 4485.5000000000009 4242.0000000000009 26.500000000000004 25.500000000000004 51.500000000000007 50.500000000000007 49.500000000000007 1854.0000000000002 1995.0000000000002 58924.500000000007 6920.0000000000009 29231.000000000004 27109.500000000004 419.50000000000006 434.50000000000006 383.00000000000006 393.00000000000006 30.500000000000004 29.500000000000004 3063.5000000000005 3227.5000000000005 1518.0000000000002 225.50000000000003 229.50000000000003 103.50000000000001 100.50000000000001 84.500000000000014 89.500000000000014 91.500000000000014 41.500000000000007 240.50000000000003 443.50000000000006 11412.500000000002 9346.0000000000018 10141.500000000002 10576.000000000002 8608.5000000000018 650.50000000000011 27.500000000000004 207.00000000000003 212.50000000000003
decision_type=2 2 2 2 2 2 2 2 2 2 2 2 2 2 2 2 2 2 2 2 2 2 2 2 2 2 2 2 2 2 2 2 2 2 2 2 2 2 2 2 2 2 2 2 2 2 2 2 2 2 2 2 2 2 2 2 2 2 2 2 2 2 2 2 2 2 2 2 2 2 2 2 2 2 2 2 2 2 2 2 2 2 2 2 2 2 2 2 2 2 2 2 2 2 2 2 2 2 2 2 2 2 2 2 2 2 2 2 2 2 2 2 2 2 2 2 2 2 2 2 2 2 2 2 2 2
left_child=-1 3 8 6 7 10 -2 73 38 20 50 84 13 26 -7 -16 -8 18 19 -10 21 22 46 24 25 -14 27 28 52 61 115 -32 87 37 36 -36 45 42 40 -40 41 -3 102 80 -22 -35 48 -48 49 -9 -5 106 54 -54 55 56 57 85 -15 -56 -52 65 -63 -64 -65 66 67 -19 -69 -37 -71 -68 -39 76 78 83 79 -77 -75 -4 -21 82 -13 122 -12 86 -6 88 -17 90 91 -72 -53 -94 -27 -55 97 -60 100 -100 -81 -102 103 -34 -23 -106 -49 124 -109 110 111 -41 -113 -114 -47 -31 -101 118 121 -120 -121 -30 -76 -89 -66 -126
right_child=1 2 4 5 12 14 16 9 17 -11 11 81 23 58 15 32 -18 29 -20 43 44 104 -24 -25 -26 94 -28 -29 117 30 31 -33 33 34 35 69 -38 72 39 109 -42 -43 -44 -45 -46 114 47 51 -50 -51 60 92 53 95 59 -57 -58 -59 96 -61 -62 62 63 64 107 -67 71 68 -70 70 89 -73 -74 74 75 77 -78 -79 -80 98 -82 -83 -84 -85 -86 -87 -88 123 -90 -91 -92 -93 93 -95 -96 -97 -98 -99 99 116 101 -103 -104 -105 105 -107 -108 108 -110 -111 -112 112 113 -115 -116 -117 -118 -119 119 120 -122 -123 -124 -125 125 -127
leaf_value=-0.013738618818595269 0.025017633304562078 0.0462318886919066 0.054852082198646179 0.034746357139726326 0.056013087516703086 0.043322128950987041 0.02884383998553218 0.057223023806811185 0.052022282617238028 0.046321725567091937 0.036805814514729661 0.036150050890639801 0.070438262916653713 0.047966272161166543 0.033810134100392616 0.042686164898691287 0.032004831325302741 0.045917560482404918 0.055830918801921814 0.040127858000228785 0.063911105293613449 0.051103543231995688 0.058817653125641384 0.056054469669698827 0.065531189861493616 0.055727928599072343 0.063163063390587165 0.056289835575866254 0.06099403387112004 0.053212952466931585 0.043764718614696892 0.048439619527473485 0.033498806773083589 0.042415909055040411 0.020507133324765912 0.044251278769226965 0.047927299268231631 0.028871317867285931 0.035496138199479381 0.045833034557084609 0.047135662684210565 0.040731124700235002 0.041387916418282225 0.038011120326857738 0.057043841564596125 0.033511333543301935 0.046004599059326093 0.053205422572047127 0.061766111859671874 0.046859336719014585 0.030907885248540795 0.052696034103049211 0.04990842178368754 0.059572030834734981 0.064924024327261298 0.043194993283656065 0.060910037387926753 0.0476220272447586 0.05295270136037198 0.059377434341168059 0.03346843673153737 0.033585057037509372 0.050578136432442335 0.037769615376676037 0.043802411486310644 0.050978789415703732 0.035929736075264118 0.05194808232146908 0.04418388741079067 0.02709804994550254 0.037718261641159066 0.04376059892713078 0.036360690674124604 0.053375894415847426 0.045060150131914674 0.057468059570849696 0.046123196714284873 0.052031115773902306 0.057462684082700978 0.051457355955166997 0.047596103800175892 0.037193795940308076 0.033501456445264567 0.042158692771813167 0.039259080322791864 0.054874365575333074 0.060650872921827075 0.04651231170811803 0.036665585383436131 0.041181417446939518 0.030846156195025311 0.044133754260296282 0.057916939918350931 0.05365351192752689 0.060431433169438699 0.055088656231123349 0.053935316455700912 0.064623900176219592 0.055163837263118798 0.047329167892282781 0.037290819893396464 0.050612248549760368 0.033355807189398533 0.040494167827091837 0.055922557041022607 0.051593379649213025 0.058121198714794257 0.039205285426512602 0.046171403726311233 0.041805968716299949 0.048359035638158236 0.040044027986172272 0.048831298737054551 0.042171249728472658 0.040194900175095798 0.049724828272404792 0.051777129997833904 0.05784440431797945 0.064608611924444212 0.05202374300529769 0.062535985962859295 0.056769016679190314 0.049617751039788743 0.042469342451078453 0.052036066997443224 0.045830629767286718
leaf_weight=48307.874114173275 1095.5167126244196 119.07787805423141 72.703999051824212 333.60681202134583 54.568833166733384 355.73121746862307 569.24196857248899 100.67248455435038 88.082300677895546 62.996257959399372 168.78249119338579 167.56519801961258 18.826018904335797 22.354533272795379 99.225372761953622 144.06687135621905 391.31064035999589 382.8267446202226 72.696316257119179 16.640124525874853 35.022349916398525 195.66505665704608 142.78188341856003 60.867229362949729 100.39204978570342 29.757662516087294 68.557052705436945 334.08762552356347 148.25151569396257 52.764498645439744 154.57531068986282 169.35948897898197 35.186387556605041 208.55408546124818 13.037171563832088 40.876268625259399 85.160291823558509 23.651997154578567 28.984783754684031 91.808809865266085 244.22471332736313 99.236974502447993 106.62941639171913 28.292770319618285 76.020249143242836 22.169711738592014 46.14578441157937 28.684843353927135 53.394244592636824 29.748798668384552 203.02446325088385 186.64629720896482 40.689266205765307 56.196764666587114 38.768327521160245 21.343129457440227 75.883432233706117 19.794206283986568 26.607742785476148 109.24378521367908 384.83664870541543 38.092201121151447 72.119311988353729 31.563341942324769 38.937931843101978 67.174664311110973 21.907961063086987 71.074362402781844 35.029692841693759 20.533846500096843 58.889301441144198 34.527366053313017 36.627570186275989 231.88227818906307 34.824576023966074 50.996189292520285 56.773372628260404 973.74307624436915 105.03598997555673 281.62565473490395 46.659258564934134 89.335641086101532 427.33496597455814 22.429725640453398 313.45725799351931 55.319021806120872 88.750809550285339 57.282356997951865 36.549449967453256 211.38333396567032 18.380288679618388 27.981958007439971 100.98833215516061 232.26608959119767 239.06714280787855 59.818520978558809 207.40458904206753 19.12369242683053 82.34465358639136 28.805810343008488 22.104650248773396 96.982336914166808 33.819530584849417 65.20011125318706 67.372223956510425 69.740475000813603 110.95678187534213 22.784522210247815 22.270247953012586 114.16288835089654 62.796079787425697 89.54899044893682 61.351706698536873 148.23735034046695 23.701552465790883 178.01990641839802 184.24222679389641 48.963923513889313 111.49576360359788 16.593465687707067 52.881129950284958 59.632233502343297 73.635578134097159 62.695746350102127 31.35250117816031 69.814764996990561
leaf_count=2190256 11723 560 173 2296 154 1903 5226 241 278 278 1094 918 82 122 885 771 3280 1747 197 129 127 721 335 261 168 125 143 954 347 167 648 849 306 1134 194 188 372 298 246 401 1244 532 576 196 202 193 185 124 110 140 1753 761 174 157 130 168 267 100 112 286 2913 219 364 186 217 346 159 243 165 200 424 151 250 791 130 110 310 3573 310 1064 227 579 3424 177 1969 247 195 329 329 1346 171 180 343 819 612 250 622 96 241 136 152 413 314 318 219 311 267 138 171 533 251 474 198 781 214 627 789 108 201 99 139 246 328 330 163 388
internal_value=0 0.0449047 0.0521481 0.034099 0.0549677 0.0376496 0.0274068 0.0529929 0.0460763 0.0545468 0.0349441 0.03619 0.0584534 0.0577727 0.0408102 0.040186 0.0301316 0.0471506 0.049946 0.047565 0.0548978 0.0545471 0.0553095 0.0610863 0.0618756 0.0605998 0.0584656 0.0582343 0.0588482 0.0466785 0.0480034 0.0462088 0.0406608 0.0400848 0.0410363 0.0392776 0.0430617 0.0377757 0.0443052 0.0433569 0.0455289 0.0437315 0.0388654 0.0432785 0.0592097 0.0414331 0.0547464 0.0541945 0.0568654 0.0548591 0.0333669 0.0547675 0.0574474 0.0553514 0.0581558 0.0569018 0.0578958 0.0568487 0.054098 0.0608302 0.0325841 0.0458961 0.0445879 0.0460389 0.0445284 0.0465944 0.0460543 0.04667 0.0493848 0.039925 0.0394005 0.0407207 0.0334221 0.0519613 0.052378 0.0517156 0.0512079 0.0523017 0.05465 0.0515834 0.0456329 0.0346322 0.0342475 0.0471269 0.0384004 0.0577681 0.058885 0.042638 0.0414678 0.0401983 0.0382238 0.0397847 0.0541379 0.0549455 0.0599108 0.0572604 0.0546395 0.0578333 0.051242 0.0522875 0.0504713 0.0481396 0.0368613 0.0380422 0.0521818 0.0537206 0.0571114 0.0456806 0.0426486 0.0437581 0.0442492 0.0435891 0.0429004 0.0441208 0.0369647 0.0505223 0.0511757 0.0608331 0.0612094 0.062849 0.0600252 0.0597821 0.0481544 0.0443996 0.0466556 0.0477537
internal_weight=0 14779.8 8848.47 5931.35 6042.47 3875.28 2056.07 3857.23 2806 1539.1 2087.94 1166.48 2185.24 1736.33 1787.33 1431.6 960.553 1746.57 252.371 179.674 1476.11 1365.06 1032.29 448.91 388.043 287.651 1460.84 1392.28 1058.19 1494.19 554.719 323.935 1332.38 1031.78 730.668 391.082 339.586 301.115 1059.43 596.891 462.54 218.315 240.835 91.5922 111.043 254.425 889.504 705.688 183.816 130.421 921.468 659.542 620.376 156.705 463.672 315.659 294.316 218.433 275.491 148.012 587.861 939.476 326.935 288.843 216.723 612.541 545.366 488.931 106.104 378.045 337.169 56.4353 60.2796 2318.13 1492.55 1155.63 825.583 1024.74 336.918 768.809 63.2994 684.236 594.9 130.89 482.24 198.639 143.32 300.594 180.616 316.635 105.252 86.8713 519.901 333.254 268.825 116.015 253.136 45.7314 696.105 295.393 400.713 119.087 134.206 100.386 332.778 137.113 139.642 185.16 45.0548 567.906 453.743 390.947 299.138 209.589 45.8713 230.784 213.048 437.818 388.854 180.97 69.4746 207.884 108.46 119.978 140.105 101.167
internal_count=2270296 80040 33640 46400 20445 26171 20229 13880 13195 5183 14946 7984 6565 5317 11225 9322 8506 7975 1027 830 4905 4576 3325 1248 987 819 4365 4222 3268 6948 2291 1497 8437 6678 4616 2703 1913 2062 5220 2884 2336 1092 1514 552 329 1541 2990 2499 491 381 6962 2314 2128 581 1547 1131 963 696 952 416 4666 4657 1846 1627 1263 2811 2465 2155 408 2509 2321 310 548 8697 5419 4318 3278 3683 1101 2968 356 4921 4342 635 3063 596 349 1759 1100 2121 775 604 1923 1162 737 407 830 208 2795 1166 1629 565 938 624 1251 530 391 1077 309 2638 2105 1854 1453 979 407 794 925 1140 1032 439 238 593 458 659 768 551
is_linear=0
shrinkage=0.05


Tree=3
num_leaves=127
num_cat=0
split_feature=133 133 133 133 133 133 133 133 133 133 133 133 133 133 133 133 133 133 133 133 133 133 133 133 133 133 133 133 133 133 133 133 133 133 133 133 133 133 133 133 133 133 133 133 133 133 133 133 133 133 133 133 133 133 133 133 133 133 133 133 133 133 133 133 133 133 133 133 133 133 133 133 133 133 133 133 133 133 133 133 133 133 133 133 133 133 133 133 133 133 133 133 133 133 133 133 133 133 133 133 133 133 133 133 133 133 133 133 133 133 133 133 133 133 133 133 133 133 133 133 133 133 133 133 133 133
split_gain=11708.9 408.81 51.0188 45.5633 9.75895 9.43915 4.61769 3.75452 2.25851 1.75354 1.65727 1.29823 1.21372 0.892148 0.851467 1.19738 1.01719 0.715037 0.592317 0.600566 0.532358 0.862692 0.493691 0.488686 0.474351 0.45008 0.651213 0.859791 0.392353 0.436995 0.589118 0.388118 0.348969 1.50902 1.22147 0.341175 0.319277 0.38878 0.882754 0.318876 0.318511 0.344374 0.317724 0.307469 0.783387 0.301317 0.312525 0.292935 0.373102 0.286131 0.283065 0.797484 0.541454 0.405164 0.460517 0.969633 0.563432 0.792921 0.502694 0.373189 0.652081 0.371825 0.350823 0.394262 0.278968 0.270101 1.18013 0.623508 0.538008 0.429055 0.265674 0.263232 1.22713 0.475372 0.467251 0.39742 0.263169 0.246969 0.240261 0.578546 0.362977 0.239962 0.242237 0.239018 0.228004 0.227663 0.2252 0.22413 0.222553 0.220808 0.496508 0.34949 0.213275 0.208747 0.625372 0.208117 0.204751 0.328633 0.547042 0.198946 0.346694 0.193363 0.192836 0.25252 0.190486 0.414681 0.242397 0.7089 0.244395 0.240254 0.18762 0.18664 0.178015 0.556766 0.266251 0.318764 0.176254 0.166824 0.160061 0.15883 0.158162 0.755006 0.232929 0.151373 0.151012 0.150449
threshold=1.0000000180025095e-35 60.500000000000007 1026.5000000000002 7.5000000000000009 2.5000000000000004 294.50000000000006 3484.0000000000005 16.500000000000004 110.50000000000001 1.5000000000000002 47623.500000000007 11.500000000000002 12076.500000000002 938.50000000000011 9346.0000000000018 10141.500000000002 3608.0000000000005 4087.5000000000005 215499.00000000003 135082.50000000003 21.500000000000004 23.500000000000004 52653.500000000007 18.500000000000004 534.50000000000011 1402.5000000000002 1430.5000000000002 1482.0000000000002 14791.000000000002 23475.500000000004 25292.000000000004 58924.500000000007 44.500000000000007 42.500000000000007 45.500000000000007 29231.000000000004 114.50000000000001 122.50000000000001 125.50000000000001 27109.500000000004 3834.5000000000005 3965.0000000000005 119.50000000000001 478.00000000000006 467.00000000000006 20913.000000000004 16144.500000000002 366.00000000000006 319.50000000000006 103.50000000000001 149.50000000000003 138.50000000000003 132.50000000000003 161.50000000000003 185.50000000000003 180.50000000000003 195.50000000000003 200.50000000000003 172.50000000000003 262.50000000000006 251.50000000000003 176.50000000000003 156.50000000000003 152.50000000000003 56.500000000000007 635.50000000000011 701.50000000000011 602.50000000000011 714.50000000000011 555.50000000000011 302.50000000000006 5440.0000000000009 5201.5000000000009 6204.5000000000009 4485.5000000000009 6566.5000000000009 116.50000000000001 4868.5000000000009 1601.5000000000002 1854.0000000000002 1995.0000000000002 845.50000000000011 899.50000000000011 328.50000000000006 1374.5000000000002 3.5000000000000004 8934.5000000000018 812.50000000000011 1518.0000000000002 235.50000000000003 225.50000000000003 240.50000000000003 100.50000000000001 46.500000000000007 47.500000000000007 190.50000000000003 1317.0000000000002 1118.5000000000002 1096.5000000000002 165.50000000000003 169.50000000000003 1184.5000000000002 7519.5000000000009 6920.0000000000009 28.500000000000004 29.500000000000004 35.500000000000007 33.500000000000007 34.500000000000007 40.500000000000007 284.50000000000006 508.50000000000006 2605.5000000000005 2427.5000000000005 3063.5000000000005 3227.5000000000005 4.5000000000000009 10576.000000000002 58.500000000000007 4723.5000000000009 393.00000000000006 383.00000000000006 374.50000000000006 668.50000000000011 54.500000000000007 8005.5000000000009
decision_type=2 2 2 2 2 2 2 2 2 2 2 2 2 2 2 2 2 2 2 2 2 2 2 2 2 2 2 2 2 2 2 2 2 2 2 2 2 2 2 2 2 2 2 2 2 2 2 2 2 2 2 2 2 2 2 2 2 2 2 2 2 2 2 2 2 2 2 2 2 2 2 2 2 2 2 2 2 2 2 2 2 2 2 2 2 2 2 2 2 2 2 2 2 2 2 2 2 2 2 2 2 2 2 2 2 2 2 2 2 2 2 2 2 2 2 2 2 2 2 2 2 2 2 2 2 2
left_child=-1 3 5 4 9 8 25 11 49 -2 12 -5 14 24 16 -16 -8 40 19 22 23 -22 -12 -9 43 84 -27 -28 -14 45 -31 -24 33 104 -34 39 -10 42 -39 -32 -18 -42 76 44 47 46 -30 48 70 92 51 52 -40 62 55 58 95 -58 99 60 89 -60 63 -52 93 67 123 69 -68 -26 -7 72 74 -73 -19 -75 -38 119 88 -80 -81 87 -83 -50 96 -6 102 -70 -29 90 -59 -91 -3 -36 -95 -56 97 98 -4 -55 -101 -99 103 -77 -23 -106 107 -107 -109 -108 -61 -45 113 -82 -114 -116 -87 -17 -66 -76 121 122 -49 -67 -96 -104
right_child=1 2 6 7 85 13 10 20 36 -11 18 -13 28 -15 15 117 17 71 -20 -21 21 32 31 -25 65 26 27 78 29 30 35 -33 34 -35 64 -37 37 38 50 -41 41 -43 -44 111 -46 -47 -48 120 83 -51 53 -53 -54 54 56 -57 57 59 61 110 -62 -63 -64 -65 118 66 68 -69 81 -71 -72 73 -74 75 77 86 -78 -79 79 80 112 82 -84 -85 -86 116 -88 -89 -90 91 -92 -93 -94 94 124 -97 -98 101 -100 100 -102 -103 125 -105 105 106 109 108 -110 -111 -112 -113 114 -115 115 -117 -118 -119 -120 -121 -122 -123 -124 -125 -126 -127
leaf_value=-0.011379500236146442 0.021867123212914771 0.04090804102595158 0.049071678238014289 0.034216814757805532 0.028228596717834661 0.048504071605328554 0.061089525142806869 0.036354926708069356 0.047070615702255715 0.025542440061959399 0.062787698043646992 0.030398862152415343 0.049051928563286225 0.04301551522206426 0.061236350840923937 0.049042006955520953 0.05210404858963779 0.05588478148918128 0.052366958615872886 0.061180433682613812 0.031329084565513747 0.037500113511199473 0.050210721242736046 0.039905944545314986 0.051722225777897403 0.056838457879162585 0.043360503575948062 0.049258925956315015 0.055633879312008708 0.041990143487521836 0.050740310578208839 0.056536425762322345 0.019046992017834791 0.043862208460544949 0.038499426696996873 0.05046603034990485 0.036664885233015955 0.049620100870108569 0.041860280058096264 0.05867933198885137 0.042649220310869512 0.050864046661070222 0.035605397540100441 0.043445860878881214 0.054063424099704931 0.056667603263102273 0.051406719753245213 0.04403252212969927 0.051539213376297813 0.038232840321876897 0.048283075433587536 0.038630272643466843 0.047610000539061927 0.043317253176201845 0.045567924309692136 0.032625014860064548 0.0344544672869182 0.044161545136791269 0.048835624377958325 0.04107368757219796 0.048796412313159475 0.041184264449450371 0.049315219170709183 0.041308321953748867 0.040742943566282545 0.044854069208873498 0.05418713178147775 0.052923270745699247 0.048235888564650282 0.046296404448516779 0.042896300098737239 0.057105967156228336 0.040433092771277615 0.048631137040467398 0.050982361254960029 0.055388113616182538 0.044317475448148493 0.053701922645602411 0.048329304507450613 0.05437603224753193 0.050307592131593165 0.051044000096318543 0.046886089108165024 0.048063875575601517 0.044903402015159868 0.030731015305650256 0.049228903915834808 0.04443891428393662 0.054331325633079589 0.04862025442348223 0.037741460549180622 0.043238428291721809 0.044055155483172431 0.025417493454664271 0.035804248143665597 0.050705219863763022 0.051748896390010138 0.045290842207803036 0.056136277890031387 0.032878504218334909 0.041642669083017836 0.048752106763628372 0.057499507940814321 0.050587202411947363 0.030089716898687592 0.036537935986291931 0.038154908149483246 0.025550071405796217 0.032655949513403552 0.033937610457110516 0.04423314287199584 0.046822664117853879 0.048931214092701431 0.054436774485992136 0.05426799933208433 0.049330307365842624 0.029200698562569447 0.054546165056660746 0.036252923298203558 0.045436973742740944 0.046586308139461297 0.035092897090711499 0.0497550517226788 0.041114842942010774 0.032249439310306841 0.054494680032402633
leaf_weight=48594.104862610257 946.15518668864388 783.37642565346323 102.01622986793518 568.99278742494062 340.0285150113632 35.676317220553756 46.196853054687381 176.87709798011929 78.244157776236534 493.97751606209204 28.624805660918355 365.7939300024882 110.27130066137761 105.87080658227205 102.64018812775612 16.08836336247623 69.16769215092063 130.75520406104624 60.149420456960797 93.674101008102298 85.165103278355673 265.97450249735266 27.142559869214892 214.23838621005416 53.132959192618728 49.469343710690737 35.87101726885885 27.467321967706084 64.67757498472929 17.532578389160335 23.025234476663172 227.42455637920648 11.304090850171631 75.022156350314617 35.779705364257097 178.0125532457605 14.927271656692026 66.340698538348079 95.040350025286898 28.064580151811242 24.663468007929623 26.428501849528402 23.828007146250457 89.81906905490905 41.292295409366488 66.250548703595996 134.97059208340943 42.208938781172037 66.759149871766567 95.247261947020888 36.100221946835518 96.634693002328277 71.938650468364358 31.43785220105201 38.050533564761281 26.776688589248806 22.155112329288386 135.75220244564116 44.145973283797503 119.14515907177702 87.30879847612232 24.797093289904296 63.50535823404789 46.179769322276115 37.075301731936634 69.035194454714656 46.117023762315512 103.89101646561176 214.64489398617297 115.93895977921784 51.767566023394465 148.80491051822901 18.604230964090675 34.521287407260388 55.218918934464455 55.441574553027749 45.414568435400724 81.626962579786777 171.39301548525691 98.654559539631009 212.22035781852901 130.31747221574187 47.906321818009019 191.07982828142121 26.805120168253779 300.17590563045815 20.476431045681238 47.458945231512189 101.65878311917186 51.997724394313991 38.70043405611068 71.847137352451682 57.806255617178977 17.879202315816656 167.48053161497228 40.909851053729653 92.083675257861614 55.092305410187691 37.465706270188093 18.640251609496772 28.59331867005676 150.78967701364309 69.371353518217802 54.132978683803231 29.497439838480204 180.01138783898205 183.04765934403986 20.054934148443863 30.507014962378889 41.41090233461 77.588121470063925 75.162117150612175 170.63616589270532 132.67296364158392 68.958832371979952 62.139544485136867 504.18655703391414 95.379181258380413 42.718173117376864 16.853498481214046 257.04386328486726 18.333512629847974 30.727465561823919 44.520850664004683 36.36219794396311 104.27183596044779
leaf_count=2190256 11723 4436 408 3981 3280 185 127 1154 278 5226 82 3424 412 530 201 99 202 349 261 168 885 1759 125 1328 211 110 185 124 145 122 112 612 194 372 188 622 129 197 435 96 140 138 196 405 177 143 397 150 173 533 151 588 353 165 170 219 186 768 165 648 301 181 243 220 264 310 110 310 781 453 356 416 168 174 247 157 227 267 761 343 819 384 194 774 140 2296 124 238 267 167 309 326 251 200 1264 194 241 339 103 159 151 596 180 250 306 1208 1134 298 250 407 308 265 721 335 219 311 4666 247 301 100 1169 152 140 325 292 289
internal_value=0 0.0415562 0.0485417 0.0305613 0.0258666 0.044812 0.0527445 0.0352547 0.0427559 0.0231278 0.0542136 0.0327228 0.0535408 0.0474742 0.0544895 0.0573398 0.0538516 0.0534843 0.0569746 0.05771 0.0366887 0.0361882 0.056562 0.0383 0.0477404 0.0506906 0.0512286 0.050972 0.0517575 0.0523396 0.0508237 0.055862 0.0365407 0.0371009 0.0352142 0.0514997 0.0439613 0.0437897 0.0439977 0.0551014 0.0498925 0.0468985 0.040494 0.0469349 0.0473728 0.0537457 0.0527761 0.0469745 0.0480065 0.0408302 0.0437034 0.0422453 0.0443374 0.0440864 0.0436722 0.0413788 0.0442574 0.0437386 0.0429667 0.0440918 0.0449959 0.0460836 0.0465233 0.0443685 0.035756 0.0485708 0.0479776 0.0498748 0.049049 0.0480015 0.0451842 0.054031 0.052874 0.0547509 0.0536877 0.0537148 0.0424244 0.0518186 0.0512331 0.0509487 0.051551 0.0485109 0.0499264 0.0489637 0.0493797 0.0293133 0.0542926 0.0475484 0.0532523 0.0438835 0.0427373 0.0454981 0.0411243 0.0349556 0.0343837 0.0482296 0.049654 0.0490954 0.0509693 0.0402353 0.038184 0.0478259 0.0546587 0.0530163 0.036425 0.0358348 0.0362072 0.0350686 0.0298375 0.0373768 0.0423197 0.0449843 0.05112 0.051896 0.0502331 0.0519276 0.0297718 0.0537517 0.0383392 0.0496856 0.0459514 0.0441634 0.0464434 0.0433881 0.0351701 0.0556951
internal_weight=0 13306.7 8136.99 5169.72 2584.52 4311.13 3825.86 2585.19 2432.43 1440.13 2230.46 934.787 1793.45 1878.7 1170.64 214.108 956.536 910.339 437.015 376.866 1650.41 1259.29 283.192 391.115 1772.83 1595.39 1131.14 1081.67 622.805 512.534 246.635 254.567 1174.13 825.526 348.599 229.102 1496 1417.76 1333.59 51.0898 120.26 51.092 84.1698 899.87 734.889 265.899 199.648 693.597 345.283 936.43 1267.25 263.614 166.979 1003.63 857.846 174.391 683.455 604.495 147.614 582.34 385.606 68.9431 145.785 82.28 337.295 872.964 600.001 272.963 486.445 169.072 87.4439 790.079 303.059 487.02 284.455 338.215 60.3418 153.699 1045.8 916.675 745.282 440.328 178.224 257.839 464.253 1144.39 303.694 262.104 129.126 298.297 174.453 123.845 841.183 257.502 221.722 78.9604 437.448 345.364 139.482 78.6714 47.2336 205.882 283.218 109.575 750.504 484.529 455.032 230.573 50.5619 224.459 196.733 164.981 646.628 344.893 301.735 131.098 804.362 111.468 79.7935 72.0724 348.314 91.2699 72.9364 113.556 203.843 173.643
internal_count=2270296 80040 33640 46400 27191 20446 13194 19209 12654 16949 7172 7405 5924 7792 3875 547 3328 3201 1248 987 11804 9322 819 2482 7262 6022 4195 4085 2049 1637 952 737 8437 5734 2703 830 7434 7156 6604 208 480 278 552 3946 3276 685 542 3099 1488 5220 6407 1376 788 5031 4417 1040 3377 3013 821 2827 1871 346 614 371 2509 3316 2342 974 1707 664 541 2721 1131 1590 963 1174 356 614 3900 3509 2748 1597 578 947 1827 10242 1000 1019 391 1570 1077 493 4687 1944 1756 364 1687 1446 511 475 310 935 876 407 5362 3603 3297 1756 548 1541 956 670 2405 1154 1251 530 6962 346 565 347 1611 442 290 635 1556 469
is_linear=0
shrinkage=0.05


Tree=4
num_leaves=127
num_cat=0
split_feature=133 133 133 133 133 133 133 133 133 133 133 133 133 133 133 133 133 133 133 133 133 133 133 133 133 133 133 133 133 133 133 133 133 133 133 133 133 133 133 133 133 133 133 133 133 133 133 133 133 133 133 133 133 133 133 133 133 133 133 133 133 133 133 133 133 133 133 133 133 133 133 133 133 133 133 133 133 133 133 133 133 133 133 133 133 133 133 133 133 133 133 133 133 133 133 133 133 133 133 133 133 133 133 133 133 133 133 133 133 133 133 133 133 133 133 133 133 133 133 133 133 133 133 133 133 133
split_gain=9424.89 365.918 43.5523 38.3899 7.95811 7.4803 3.75768 3.67698 1.54026 1.45496 1.12527 1.17156 1.02261 1.01964 0.965758 0.964996 0.902943 0.72808 0.632057 0.593435 0.56874 0.534674 0.446562 0.775126 0.770024 0.405556 0.466193 0.400722 1.11197 0.916364 0.363709 1.23934 0.448536 0.335032 0.354579 0.329769 0.300121 0.250824 0.249088 0.243696 0.283702 0.238206 0.312884 0.528159 0.33278 0.23743 0.321408 0.231378 0.829659 0.618629 0.460134 0.510164 0.846961 0.477398 0.340977 0.6744 0.522881 0.254887 0.230116 0.46589 0.540878 0.323023 0.306705 0.228949 0.22681 0.72669 0.224304 0.218398 0.213441 1.18702 0.507099 0.436098 0.287191 0.758182 0.474701 0.318875 0.318637 0.281027 0.287179 0.233911 0.627487 0.536435 0.206429 0.87655 0.617054 0.326599 0.301149 0.201723 0.201152 0.492962 0.231006 0.194734 0.187178 1.01708 0.389715 0.743492 0.321167 0.415714 0.369151 0.255415 0.180042 0.344532 0.187956 0.18001 0.428789 0.179861 0.163721 0.160812 0.159572 0.158564 0.443394 0.24879 0.188124 0.175277 0.150055 0.363398 0.148909 0.291088 0.260665 0.139103 0.159534 0.137004 0.528922 0.134277 0.122381 0.333986
threshold=1.0000000180025095e-35 68.500000000000014 7.5000000000000009 1026.5000000000002 2.5000000000000004 289.50000000000006 16.500000000000004 4087.5000000000005 110.50000000000001 1.5000000000000002 58924.500000000007 12076.500000000002 69.500000000000014 9346.0000000000018 10141.500000000002 938.50000000000011 11.500000000000002 534.50000000000011 215499.00000000003 262.50000000000006 251.50000000000003 135082.50000000003 21.500000000000004 23.500000000000004 18.500000000000004 60.500000000000007 63.500000000000007 44.500000000000007 42.500000000000007 45.500000000000007 635.50000000000011 701.50000000000011 714.50000000000011 366.00000000000006 419.50000000000006 434.50000000000006 602.50000000000011 10576.000000000002 3.5000000000000004 858.50000000000011 899.50000000000011 14791.000000000002 23475.500000000004 25292.000000000004 20913.000000000004 467.00000000000006 478.00000000000006 1854.0000000000002 1601.5000000000002 1995.0000000000002 1518.0000000000002 1430.5000000000002 1402.5000000000002 1374.5000000000002 1118.5000000000002 1096.5000000000002 1317.0000000000002 1482.0000000000002 3063.5000000000005 2540.0000000000005 2427.5000000000005 3834.5000000000005 3965.0000000000005 555.50000000000011 46.500000000000007 47.500000000000007 1184.5000000000002 433931.00000000006 138.50000000000003 149.50000000000003 161.50000000000003 132.50000000000003 185.50000000000003 195.50000000000003 180.50000000000003 190.50000000000003 200.50000000000003 172.50000000000003 176.50000000000003 125.50000000000001 122.50000000000001 119.50000000000001 5440.0000000000009 5201.5000000000009 5618.5000000000009 4485.5000000000009 4868.5000000000009 110335.50000000001 42757.500000000007 52653.500000000007 47623.500000000007 114.50000000000001 78.500000000000014 82.500000000000014 84.500000000000014 89.500000000000014 103.50000000000001 100.50000000000001 91.500000000000014 87.500000000000014 235.50000000000003 225.50000000000003 240.50000000000003 319.50000000000006 328.50000000000006 302.50000000000006 879.00000000000011 8934.5000000000018 116.50000000000001 35.500000000000007 33.500000000000007 37.500000000000007 34.500000000000007 38.500000000000007 508.50000000000006 496.50000000000006 7519.5000000000009 8005.5000000000009 6920.0000000000009 40.500000000000007 41.500000000000007 383.00000000000006 393.00000000000006 80.500000000000014 143.50000000000003 146.50000000000003
decision_type=2 2 2 2 2 2 2 2 2 2 2 2 2 2 2 2 2 2 2 2 2 2 2 2 2 2 2 2 2 2 2 2 2 2 2 2 2 2 2 2 2 2 2 2 2 2 2 2 2 2 2 2 2 2 2 2 2 2 2 2 2 2 2 2 2 2 2 2 2 2 2 2 2 2 2 2 2 2 2 2 2 2 2 2 2 2 2 2 2 2 2 2 2 2 2 2 2 2 2 2 2 2 2 2 2 2 2 2 2 2 2 2 2 2 2 2 2 2 2 2 2 2 2 2 2 2
left_child=-1 2 4 5 9 8 16 47 12 -2 11 13 -3 82 -15 17 -4 33 21 20 68 87 24 -24 -8 27 -27 28 109 -29 36 -32 -33 103 121 -36 63 -16 -6 -34 106 -13 44 -44 -43 -37 -47 48 50 -49 51 52 53 54 55 -5 66 -53 59 60 -51 -60 -63 -19 -31 -66 -56 -20 71 124 -71 79 74 75 77 -74 -75 -72 -79 80 81 91 83 85 -84 -9 -87 -12 -45 90 -90 -10 -14 123 -95 99 97 98 -97 -96 101 -78 -102 105 -105 -7 -41 116 -93 110 -25 -111 -112 -113 115 -48 118 -118 -86 -115 -121 -35 -123 -94 -70 -126
right_child=1 3 6 7 38 15 22 10 19 -11 18 41 92 14 37 -17 -18 30 67 -21 -22 -23 23 25 -26 26 -28 29 -30 64 31 32 39 34 35 45 -38 -39 -40 40 -42 42 43 88 -46 46 114 49 -50 58 -52 57 -54 -55 56 -57 -58 -59 61 -61 -62 62 -64 -65 65 -67 -68 -69 69 70 72 -73 73 76 -76 -77 100 78 -80 -81 -82 -83 84 -85 107 86 -88 -89 89 -91 -92 108 93 94 95 96 -98 -99 -100 -101 102 -103 -104 104 -106 -107 -108 -109 -110 111 112 113 -114 119 -116 -117 117 -119 -120 120 -122 122 -124 -125 125 -127
leaf_value=-0.0098789710787807322 0.019622720084759078 0.05102356053640076 0.031478925518486141 0.047633573395875352 0.025516292830434686 0.045273785324533695 0.033156561257895928 0.052295553890796265 0.043613551937787362 0.023139962790636879 0.053752003912013652 0.046648104046163624 0.03945525221904754 0.058406270502983519 0.045518117562059014 0.039876515123192215 0.028135281107712379 0.048817996322765657 0.045968781079602561 0.038340798562382247 0.045736227672580468 0.05772952222449812 0.029035225952049656 0.033771124062986754 0.037831170341465555 0.039340987076621411 0.034195487280404863 0.017515645195152817 0.040342373287960399 0.036809458792519914 0.040577246071386387 0.051479640138194831 0.045215517433781278 0.043111164372080235 0.04716770727988101 0.041110931471209776 0.049845652765487233 0.05247007983158495 0.027209662435636984 0.047415481287534034 0.044522086405353552 0.049536526104796724 0.039169996630307465 0.04778138866093825 0.053745390754493194 0.048254013789834939 0.043780662886261985 0.052200107803463784 0.044013996981695773 0.047196534700103134 0.051249926182735411 0.040219010706401936 0.054503891998773757 0.040590589277219674 0.042565857004179336 0.055538463470601686 0.050129651896530486 0.046868309366361716 0.049900459128423891 0.045485214944531019 0.05186936784763542 0.040952814004664745 0.048999915414708411 0.04495558924219531 0.021749629690102586 0.032922516008575313 0.046392599268577889 0.052145283400196966 0.037581248662611977 0.044394068491058619 0.038180353589324853 0.04569298520379711 0.042423082113500939 0.034493935481361655 0.032872817372480122 0.048774806844922698 0.041152516477601597 0.045234555761246353 0.038368898707689038 0.039248277315221361 0.046663877249004823 0.03335985236171906 0.056784899414322132 0.03863574018854106 0.051108881629382534 0.046388115178731003 0.050952448832077016 0.049369614050024054 0.050043435117109049 0.044899436423648964 0.056195961004316147 0.035044999646748551 0.028452354960073936 0.04267813021711625 0.035639730442527176 0.042355707296342748 0.036197430771713272 0.043756687936022137 0.037228539783547523 0.029282728458672865 0.044911265092930613 0.035623154893355428 0.040784715284892324 0.049652939587545332 0.044819291367507216 0.041280033498705147 0.051625345494951493 0.046385229701553538 0.041210891666324294 0.037208161016606796 0.025141973702739573 0.030191337952716831 0.031455510641400293 0.035992360471749606 0.044954670304161969 0.036015255393345609 0.054702042661224595 0.050459835428572464 0.047082373880077417 0.028966996735459018 0.035197871167087648 0.032043337132131887 0.041829233885333647 0.033522940122722722 0.029585827554491059 0.037890401655606844
leaf_weight=48792.980378107699 854.00607351682265 15.851560472510753 513.88286821567453 96.726076252758503 309.60006234725006 68.980953139252961 155.24493303173222 125.48644933663309 71.898082477971911 448.40849716577213 193.55262449011207 101.12942117778584 200.07160722231492 96.546044221147895 15.249537102878092 93.1941650332883 332.58998648996931 60.745742363855243 31.551997169852257 143.86104557290673 82.833144241012633 89.502309756353498 79.508853273931891 430.22763738920912 203.67086363583803 74.719538453966379 107.14046382205561 10.192347668576984 70.905733360908926 31.005399588495493 106.06904106680304 42.349349686875939 274.60888800024986 67.521863010711968 73.011072969064116 80.772360316943377 100.42747903242707 86.973632618784904 727.3657531097997 49.757783828303218 44.723989360034466 187.45095366518945 15.393280025105922 192.35845964588225 62.664189171046019 41.214375101029873 57.877091765403748 98.414561662822962 155.64355691429228 204.46014065621421 97.395903192460537 33.118566771969199 46.0012510959059 24.515831627883017 52.913351823110133 37.419573809951544 80.889787249267101 25.516635270789266 233.45796493766829 200.65658938046545 88.832242086529732 21.465095272287726 26.408692718949169 104.14756195992231 15.41254120483063 261.01293552014977 138.58855037111789 26.193687111139297 36.17576271854341 135.83313281368464 70.586893687024713 80.14424410648644 34.758892673999071 20.127111757057719 24.980613415129483 45.789975231513381 131.28902936261147 41.664697472006083 24.00708391610533 81.159741163719445 61.394673105329275 21.534706090111285 48.466050338000059 16.734527336899191 185.07203286839649 68.042931225150824 77.071665519848466 30.380301646888256 30.387293182313442 25.897393627092242 30.639980243518949 13.927499561104922 25.454022909747437 48.252272363752127 39.174266130663455 49.310047218576074 78.806705929338932 53.448265971615911 121.87968723615631 26.482717698439956 48.262154325842857 35.868865933269262 64.43751416169107 61.189781775698066 183.38985208934173 47.675423582084477 43.097583405673504 19.424382353201509 42.553159918636084 75.513109835330397 20.913514308864251 29.131497113965452 27.072253216523677 65.826822215691209 69.261801676824689 20.367783871479332 68.083795348182321 99.582552224397659 51.345853101462126 19.263208407675847 22.011601736303419 16.585596400778741 82.449683580547571 26.806868996471167 24.217943618074059 24.209674945101142
leaf_count=2190256 11723 132 3981 408 3280 322 1154 349 278 5226 507 412 1112 201 99 530 3424 211 135 819 301 168 885 3273 1328 422 670 194 372 188 635 110 1117 290 241 515 310 247 6962 151 194 542 122 709 143 177 233 343 761 819 267 185 110 140 339 103 241 124 859 846 210 140 138 453 200 2121 596 126 263 614 475 353 170 186 219 194 768 165 181 435 197 196 130 168 617 347 267 105 121 125 82 129 246 200 275 198 533 251 781 199 167 309 326 173 774 356 135 124 227 465 298 226 250 443 265 172 180 289 250 193 214 152 413 201 160 165
internal_value=0 0.0390028 0.0283605 0.0459581 0.0234358 0.0424687 0.0328868 0.0496382 0.0404045 0.0208337 0.0510965 0.0505225 0.0384717 0.051632 0.05482 0.0448302 0.0301652 0.0451023 0.0535774 0.0413777 0.0417365 0.054463 0.0342429 0.0338233 0.0358092 0.0341254 0.0363096 0.0337571 0.0343798 0.0322654 0.0461657 0.0454439 0.0465795 0.0440932 0.0432668 0.044187 0.0476909 0.051433 0.0267041 0.046076 0.0477937 0.0488767 0.0492904 0.0481865 0.050591 0.0433794 0.0443504 0.0479054 0.0472846 0.0484658 0.0480886 0.0475138 0.0480548 0.0473666 0.0477752 0.0498386 0.046759 0.0431126 0.0479918 0.0473417 0.0486118 0.0491332 0.0453918 0.0463785 0.0327544 0.0322996 0.0453352 0.0487705 0.0414446 0.0409651 0.0416624 0.0424253 0.0409775 0.0417268 0.039209 0.0460339 0.0405703 0.0403706 0.0427247 0.0415299 0.0424062 0.0406626 0.0507974 0.0497408 0.0514407 0.0504276 0.0488123 0.0531575 0.0486834 0.0506796 0.0531324 0.0418876 0.0381746 0.037629 0.0384524 0.0378999 0.0389438 0.0399072 0.0387054 0.0330756 0.0410073 0.039966 0.0425519 0.0452577 0.0460286 0.0436416 0.0493694 0.0508291 0.0396905 0.033767 0.0332627 0.0349061 0.0287039 0.0336301 0.0432597 0.0417593 0.0510427 0.0521825 0.0502344 0.0345655 0.0322899 0.0413745 0.0401904 0.0310533 0.035381 0.0337374
internal_weight=0 12358.7 4884.63 7474.08 2339.38 3836.47 2545.25 3637.61 2047.05 1302.41 1975.18 1604 685.538 958.079 198.769 1789.42 846.473 1696.23 371.181 1361.52 1217.65 313.435 1698.77 1339.86 358.916 1260.35 181.86 1078.49 760.865 317.623 825.927 560.607 454.538 870.298 509.062 342.504 265.321 102.223 1036.97 412.188 137.579 645.921 544.792 294.676 250.115 269.493 188.721 1662.42 788.729 873.695 633.086 535.69 477.054 431.053 406.537 134.146 272.392 58.6352 775.281 493.949 293.292 281.332 47.8738 164.893 307.431 276.425 191.502 57.7457 1134.82 762.209 677.606 372.612 541.773 380.534 161.239 80.5489 299.985 136.259 65.6718 292.468 211.308 149.913 759.31 287.336 471.975 270.601 145.115 223.933 279.283 86.9247 61.0273 128.379 669.686 469.615 417.354 369.102 303.445 224.638 171.19 65.657 279.858 167.158 112.7 361.236 244.58 116.656 92.8554 423.509 56.4807 689.96 478.213 211.746 47.9858 136.233 147.507 78.2449 404.084 167.666 236.418 107.102 41.2748 166.557 99.0353 52.2609 84.6034 48.4276
internal_count=2270296 80040 47492 32548 27191 19354 20301 13194 11425 16949 6565 5524 4128 3268 547 7929 7405 7399 1041 7297 6478 780 12896 10414 2482 9529 1092 8437 5734 2703 3316 2342 1707 4083 2458 1603 974 346 10242 1597 480 2256 1844 1159 685 1362 847 6629 3274 3355 2513 2246 1937 1827 1687 511 1176 309 3012 1875 1029 1137 278 664 2509 2321 935 261 6177 4362 3774 1815 3160 2120 1040 364 1756 821 346 1462 1027 830 2721 1131 1590 963 614 612 1037 328 203 634 3996 2884 2437 2237 1763 1230 979 474 1570 1077 493 1625 947 678 286 1460 356 5362 3821 1541 548 1076 670 405 1336 469 867 850 407 855 565 447 588 325
is_linear=0
shrinkage=0.05


Tree=5
num_leaves=127
num_cat=0
split_feature=133 133 133 133 133 133 133 133 133 133 133 133 133 133 133 133 133 133 133 133 133 133 133 133 133 133 133 133 133 133 133 133 133 133 133 133 133 133 133 133 133 133 133 133 133 133 133 133 133 133 133 133 133 133 133 133 133 133 133 133 133 133 133 133 133 133 133 133 133 133 133 133 133 133 133 133 133 133 133 133 133 133 133 133 133 133 133 133 133 133 133 133 133 133 133 133 133 133 133 133 133 133 133 133 133 133 133 133 133 133 133 133 133 133 133 133 133 133 133 133 133 133 133 133 133 133
split_gain=7848.68 323.695 39.4394 33.789 6.54377 5.53655 3.5402 2.7991 1.3821 1.26206 0.812988 0.783855 0.79748 1.81319 0.681215 0.612702 0.60641 0.59369 0.484827 0.459208 0.408987 0.707986 0.4221 0.400956 0.420641 0.390249 0.469018 0.856268 0.372902 0.970509 0.588955 0.370171 0.591718 0.570933 0.486273 0.911748 0.660881 0.57512 0.329596 0.491184 0.46641 0.304234 0.30039 0.293407 0.292768 0.290151 0.288664 0.286518 0.283472 0.245736 0.423411 0.237046 0.302025 0.220581 0.220473 0.736432 0.274715 0.374999 0.238998 0.203273 0.846113 0.257515 0.59815 0.273409 0.326598 0.312535 0.201428 0.20031 0.1994 0.185604 0.383952 0.351021 0.188732 0.369603 0.797316 0.626442 0.478238 0.428248 0.313455 0.264237 0.252804 0.240583 0.499346 0.238458 0.216931 0.180444 0.178485 0.173892 0.659044 0.565898 0.169785 0.160824 0.436095 0.152538 0.191669 0.152076 0.233082 0.157698 0.317293 0.151123 0.147159 0.143392 0.163063 0.188785 0.141114 0.138902 0.136519 0.173918 0.135377 0.129641 0.129172 0.12304 0.122444 0.119311 0.114114 0.450521 0.249165 0.233089 0.112882 0.334888 0.337926 0.164728 0.15033 0.324737 0.198508 0.283794
threshold=1.0000000180025095e-35 68.500000000000014 7.5000000000000009 1026.5000000000002 1.5000000000000002 289.50000000000006 16.500000000000004 6566.5000000000009 110.50000000000001 2.5000000000000004 938.50000000000011 83380.500000000015 10141.500000000002 9346.0000000000018 508.50000000000006 11.500000000000002 366.00000000000006 215499.00000000003 262.50000000000006 69.500000000000014 34043.500000000007 23475.500000000004 20913.000000000004 3484.0000000000005 6204.5000000000009 235.50000000000003 195.50000000000003 190.50000000000003 635.50000000000011 701.50000000000011 714.50000000000011 21.500000000000004 35.500000000000007 18.500000000000004 44.500000000000007 45.500000000000007 56.500000000000007 42.500000000000007 138.50000000000003 146.50000000000003 132.50000000000003 619.00000000000011 23.500000000000004 135082.50000000003 5920.5000000000009 3608.0000000000005 8934.5000000000018 54.500000000000007 33.500000000000007 879.00000000000011 899.50000000000011 812.50000000000011 845.50000000000011 34.500000000000007 165.50000000000003 169.50000000000003 176.50000000000003 185.50000000000003 156.50000000000003 78.500000000000014 82.500000000000014 84.500000000000014 89.500000000000014 103.50000000000001 100.50000000000001 91.500000000000014 3.5000000000000004 37.500000000000007 25292.000000000004 1118.5000000000002 1184.5000000000002 1096.5000000000002 2605.5000000000005 1921.5000000000002 1601.5000000000002 1402.5000000000002 1374.5000000000002 1995.0000000000002 3063.5000000000005 2427.5000000000005 1726.5000000000002 1430.5000000000002 1518.0000000000002 3227.5000000000005 1766.5000000000002 87.500000000000014 152.50000000000003 125.50000000000001 122.50000000000001 119.50000000000001 433931.00000000006 393.00000000000006 383.00000000000006 257.50000000000006 240.50000000000003 225.50000000000003 207.00000000000003 212.50000000000003 216.50000000000003 31187.000000000004 284.50000000000006 38.500000000000007 40.500000000000007 41.500000000000007 114.50000000000001 496.50000000000006 64.500000000000014 60.500000000000007 180.50000000000003 172.50000000000003 229.50000000000003 1854.0000000000002 110335.50000000001 1317.0000000000002 14791.000000000002 16144.500000000002 17770.500000000004 12076.500000000002 4485.5000000000009 4087.5000000000005 3834.5000000000005 3965.0000000000005 4868.5000000000009 5063.0000000000009 5440.0000000000009 5201.5000000000009
decision_type=2 2 2 2 2 2 2 2 2 2 2 2 2 2 2 2 2 2 2 2 2 2 2 2 2 2 2 2 2 2 2 2 2 2 2 2 2 2 2 2 2 2 2 2 2 2 2 2 2 2 2 2 2 2 2 2 2 2 2 2 2 2 2 2 2 2 2 2 2 2 2 2 2 2 2 2 2 2 2 2 2 2 2 2 2 2 2 2 2 2 2 2 2 2 2 2 2 2 2 2 2 2 2 2 2 2 2 2 2 2 2 2 2 2 2 2 2 2 2 2 2 2 2 2 2 2
left_child=-1 2 4 5 -2 8 15 23 19 -6 14 12 13 46 16 -4 -7 43 25 -3 21 22 114 69 44 26 27 38 41 -30 -31 33 42 -8 37 -36 47 67 40 -40 87 -16 -33 112 45 -25 -9 -37 -44 51 -51 -32 -53 -50 58 -56 109 108 86 -21 -61 -62 85 64 65 -64 -11 -34 -23 71 -71 -5 73 74 75 76 113 -75 -74 -79 -76 -77 -83 -80 -82 -63 -41 88 89 104 -19 92 -18 94 -27 96 -28 -98 -99 -70 -20 -69 -103 -104 -10 -93 107 -38 -58 -57 -97 -86 -13 -72 117 -116 -117 -14 119 120 -47 -122 -120 -124 125 -125
right_child=1 3 6 7 9 10 31 11 18 66 -12 17 20 -15 28 -17 91 90 100 59 -22 68 -24 24 -26 93 95 -29 29 30 49 32 34 -35 35 36 106 -39 39 54 -42 -43 48 -45 -46 118 -48 -49 53 50 -52 52 -54 -55 55 56 57 -59 -60 60 61 62 63 -65 -66 -67 -68 101 99 70 72 -73 78 77 80 81 -78 79 83 -81 84 82 -84 -85 111 -87 -88 -89 -90 -91 -92 105 -94 -95 -96 110 97 98 -100 -101 -102 102 103 -105 -106 -107 -108 -109 -110 -111 -112 -113 -114 -115 115 116 -118 -119 122 -121 121 -123 123 124 -126 -127
leaf_value=-0.0087824445829365969 0.017966684925723522 0.044645842155502463 0.029292324421317947 0.045588395199518357 0.021366079434948379 0.042946102742576403 0.031359476582120273 0.048528962383546155 0.041157612299983104 0.0235505085376576 0.037481027600423801 0.051707019317989378 0.047684672652948554 0.056201946201779832 0.044116006660168572 0.02643595330327439 0.039923277628671046 0.044127697388749512 0.035361381788336303 0.037554204784274528 0.048920250541925725 0.037443813112070727 0.051353328542874145 0.050732558359480068 0.041375962365362583 0.043855365876117242 0.034852059481101254 0.046507679697131793 0.038211617754679308 0.04939554753523101 0.04354662268525996 0.02765435155782326 0.035279252184609623 0.035529426192886737 0.016435723381361685 0.03084031276259604 0.032839143285096545 0.038534184176411045 0.033937002732065479 0.040336900876215505 0.043832980169927774 0.048252794221205757 0.031501989575740678 0.054657079059785542 0.051913001399522374 0.047918536772990405 0.042201437889644609 0.025387859405747049 0.023239328412760288 0.048902215903195823 0.041801278363582689 0.037274278492527645 0.042526270369474879 0.030354113295769959 0.027594219081593336 0.038326757405342103 0.036709954408987125 0.040987363415188029 0.042223400448990395 0.0294210068269639 0.039930734206777556 0.033478752978925011 0.04016639703852809 0.034220870910606292 0.041316219848179229 0.035282876989874125 0.025129045246669909 0.02859880482421261 0.04504308982583833 0.040924985179803808 0.044230768170999989 0.051341968479039483 0.042717374588481238 0.050740287069462514 0.040354818140288108 0.051543845320326701 0.037455214145866195 0.045077610666679369 0.048231206542396411 0.048054677480561934 0.049238091308328173 0.04346965912493967 0.049569034351088469 0.043817116811536591 0.040801599142600196 0.027736776525756603 0.035980686739651442 0.037385651712819767 0.044719141365330811 0.030355902027731942 0.049484384519242086 0.040841833857296499 0.030572562100823281 0.044606215906306639 0.039858627939283221 0.030448835355151783 0.041968057993236794 0.032642622506550083 0.040190017475880101 0.040813568045398263 0.039295332582676736 0.034361269436534211 0.026298967958188479 0.033388790049226874 0.037729255120247114 0.036454045342421609 0.032111858615311205 0.036111530298472957 0.031292945801389208 0.043032685691606065 0.036630501362850058 0.045012544965129256 0.047924592096682907 0.046688485100103032 0.051513902555207818 0.043265940945708847 0.047893289872906364 0.044257314778240374 0.043816093502764206 0.049235161404420323 0.038633766000093529 0.044725490016497733 0.050375435938115568 0.045675629283064428 0.046670192792042334 0.037444842681553341
leaf_weight=48937.415066727022 792.89496157733083 16.565730947069824 478.77353516616859 95.725558545440435 416.95725503040012 348.07741834269837 143.24836110183969 257.94682677881792 67.365461632609367 288.07369943289086 85.643926255404949 93.947025554254651 101.5573640530929 91.556405305862427 264.62475727824494 308.85093977139331 63.856165822129697 30.193300656974316 95.652690195012838 194.87284538568929 263.47316008992493 13.853176139760761 59.888138556852937 46.914020497351885 32.15260396618396 41.808103556744754 50.602426073659444 43.785156356170774 100.11636762646958 40.768559172749519 184.09266631072387 74.60407760203816 71.228364698123187 192.24807855440304 9.4319655074505118 188.60561880818568 69.752301053144038 66.473179498687387 55.052014989778399 57.539857640862465 78.076806731522083 53.4163249861449 401.25792491273023 86.317216958850622 31.838250936940312 56.4737234916538 19.378672083839774 27.622711148113012 19.118633145699278 43.453911090269685 40.613320013508201 42.039024787023664 78.469224039465189 25.323468699119985 16.271505613345653 23.225891856476665 22.738102068658918 32.287648873403668 81.804553938098252 48.988099784124643 45.47490144893527 36.227855213917792 45.978973772376776 72.11729633808136 50.00516673270613 113.97408591210842 677.10035190638155 25.31570462603122 73.753051874227822 50.107841454446316 133.30212201923132 36.66218027472496 152.47840934991837 61.849567929282784 93.649344185367227 43.516995007172227 22.377675613388419 198.89702355535701 63.76637234352529 119.20530328899622 16.630775477737188 53.431143196299672 90.210239004343748 58.81851920299232 35.145039255730808 21.985691049136221 39.762999863363802 74.241916496073827 57.752540078014135 19.023903533816338 29.001429775729775 322.31418715370819 15.494563108775763 36.261054144240916 106.18321715574712 15.255042809993027 31.178320230916142 21.170462908223271 40.69046351313591 29.594338692724705 31.634186530485749 63.244997235946357 16.993080904241651 20.983847925905138 54.134917651768774 19.105899539776146 69.889570097904652 97.158990222495049 23.406213584821671 39.565980667248368 18.946616738568991 34.254967456683517 27.706154596060514 78.436984827741981 54.974725969135761 48.187463829293847 73.409269221592695 96.976574536878616 64.390165484510362 120.09857949241996 19.374534709379077 25.976863951887935 44.220933290198445 29.475736951455474 110.18911686353385 16.244390120729804
leaf_count=2190256 11723 132 3981 408 5226 1625 1154 876 278 3280 530 206 346 201 1079 3424 290 135 648 1112 911 122 143 127 174 167 403 194 635 110 781 885 465 1328 194 1652 565 372 423 316 353 160 3273 168 104 202 124 292 298 135 194 238 249 250 159 151 181 170 408 447 200 275 198 533 251 781 6962 226 311 339 596 103 721 174 418 110 140 819 219 335 104 309 267 311 239 199 220 435 197 196 126 1579 152 134 493 138 163 131 257 116 171 443 193 214 356 172 532 560 219 165 171 169 105 241 145 147 250 412 347 349 140 138 141 126 312 168
internal_value=0 0.0368717 0.0264496 0.043533 0.0215876 0.0401518 0.0309114 0.0470462 0.0383124 0.0236648 0.0422284 0.0487236 0.0481718 0.050101 0.0424799 0.0281723 0.0414022 0.05117 0.0392669 0.0364285 0.0472994 0.046526 0.0474553 0.04585 0.0469389 0.0395915 0.0391884 0.0397131 0.0434575 0.0426448 0.0436783 0.0322747 0.031878 0.033749 0.0327996 0.0318219 0.0321423 0.0345107 0.0393122 0.0383154 0.0404259 0.0448108 0.0305908 0.0524275 0.0472554 0.0469773 0.0480868 0.0301438 0.0310823 0.0430786 0.0454717 0.0424181 0.0406941 0.0272934 0.0390315 0.0376668 0.0388274 0.0368542 0.0402314 0.0362123 0.0356108 0.0363969 0.0359246 0.0368769 0.0377893 0.0366867 0.0246579 0.0331583 0.0430769 0.0453978 0.045217 0.0471817 0.0453882 0.0457128 0.0449411 0.0461305 0.0444066 0.0469334 0.0442308 0.0461932 0.0421524 0.0482869 0.0473002 0.0461132 0.0441092 0.0313102 0.0385567 0.0394497 0.0402226 0.0383746 0.0467521 0.040125 0.0380974 0.0416998 0.0409877 0.0368697 0.0375831 0.0390685 0.0376071 0.0438319 0.0363391 0.0319644 0.0328062 0.0302164 0.0396301 0.0405963 0.0339671 0.034744 0.0339622 0.041292 0.0338733 0.0428801 0.0508456 0.0451412 0.046833 0.0477577 0.0460595 0.0460105 0.0466152 0.0474467 0.0453373 0.042123 0.0459175 0.0465936 0.045521 0.0427512
internal_weight=0 11656.4 4545.15 7111.22 2175.03 3623.7 2370.13 3487.53 1921.61 1382.13 1702.09 1451.71 1184.55 368.882 1616.44 787.624 768.848 267.165 1275.42 646.191 815.667 552.194 434.994 2035.81 597.349 1148.13 963.879 786.035 847.594 529.553 429.437 1582.5 1247 335.496 726.7 462.461 453.029 264.239 742.25 391.655 350.596 318.041 520.304 207.97 565.196 533.358 277.325 216.228 445.7 388.668 84.0672 304.601 120.508 44.4421 336.603 157.495 141.224 78.432 179.107 629.625 434.752 385.764 340.289 282.076 209.958 159.953 965.174 197.766 117.201 1438.47 1306.08 132.388 1255.97 980.907 600.955 421.275 234.117 379.952 275.063 318.102 179.68 187.158 143.641 122.585 86.0308 58.2135 97.3029 272.519 198.277 140.524 59.1947 420.771 79.3507 184.252 147.991 177.843 143.642 93.0392 61.8609 103.347 127.287 126.538 101.222 37.9769 121.5 341.42 236.801 166.911 46.1443 62.7919 34.2017 69.4 121.653 211.739 375.105 176.571 121.597 198.534 486.444 221.924 101.825 45.3514 264.52 200.13 155.909 45.7201
internal_count=2270296 80040 47492 32548 27191 19354 20301 13194 11425 15468 7929 4844 4104 1201 7399 7405 3818 740 7297 4128 2903 1992 1443 8350 2328 6478 5684 4421 3581 2342 1707 12896 10414 2482 5708 3795 3601 1913 4227 2412 1815 1239 4706 479 2154 2050 1000 1944 3821 1597 329 1268 487 548 1989 1045 886 570 944 3996 2884 2437 2237 1763 1230 979 10242 1541 549 6022 5511 511 5172 3921 2593 1663 977 1328 1251 1154 930 686 576 530 512 474 536 1462 1027 830 261 2193 442 794 660 1263 954 551 388 427 819 1076 850 407 634 1751 1657 1125 400 316 309 408 311 837 1300 542 397 758 1923 829 480 278 1094 747 606 294
is_linear=0
shrinkage=0.05


Tree=6
num_leaves=127
num_cat=0
split_feature=133 133 133 133 133 133 133 133 133 133 133 133 133 133 133 133 133 133 133 133 133 133 133 133 133 133 133 133 133 133 133 133 133 133 133 133 133 133 133 133 133 133 133 133 133 133 133 133 133 133 133 133 133 133 133 133 133 133 133 133 133 133 133 133 133 133 133 133 133 133 133 133 133 133 133 133 133 133 133 133 133 133 133 133 133 133 133 133 133 133 133 133 133 133 133 133 133 133 133 133 133 133 133 133 133 133 133 133 133 133 133 133 133 133 133 133 133 133 133 133 133 133 133 133 133 133
split_gain=6681.1 291.469 35.3138 30.0013 5.96958 5.49854 3.23603 2.06357 0.981189 0.87068 0.84574 0.999815 0.776829 0.538474 0.419034 0.39266 0.460113 0.381582 0.339473 0.421854 2.21756 0.332345 0.609282 0.316948 0.31063 0.47089 0.629691 0.33114 0.542678 0.280485 0.650432 0.566887 0.420113 0.785839 0.486203 0.278128 0.274914 0.241153 0.216211 0.781488 0.310151 0.680853 0.214107 0.25393 0.212611 0.209835 0.20306 0.7221 0.513676 0.426281 0.311198 0.196715 0.286299 0.196932 0.184508 0.414763 0.845442 0.462258 0.530117 0.342392 0.36847 0.308868 0.270385 0.249029 0.618644 0.222269 0.203456 0.200224 0.179088 0.178872 0.173028 0.193542 0.583501 0.463369 0.162126 0.268326 0.261578 0.160287 0.160081 0.223596 0.445854 0.15537 0.464457 0.214233 0.149849 0.143779 0.138125 0.561836 0.234159 0.219759 0.134995 0.251427 0.243538 0.128817 0.127532 0.216054 0.122317 0.120261 0.128728 0.128298 0.120251 0.119155 0.117491 0.115154 0.114868 0.267409 0.294471 0.27309 0.114834 0.1147 0.117146 0.240215 0.163031 0.351873 0.158295 0.128206 0.277397 0.114546 0.112342 0.109909 0.107434 0.174409 0.10607 0.104137 0.101537 0.417384
threshold=1.0000000180025095e-35 68.500000000000014 7.5000000000000009 508.50000000000006 3484.0000000000005 1.5000000000000002 16.500000000000004 110.50000000000001 2.5000000000000004 289.50000000000006 1026.5000000000002 938.50000000000011 83380.500000000015 215499.00000000003 262.50000000000006 879.00000000000011 899.50000000000011 11.500000000000002 67738.000000000015 9346.0000000000018 10141.500000000002 328.50000000000006 319.50000000000006 135082.50000000003 235.50000000000003 195.50000000000003 190.50000000000003 138.50000000000003 132.50000000000003 21.500000000000004 35.500000000000007 19.500000000000004 44.500000000000007 45.500000000000007 56.500000000000007 58924.500000000007 146.50000000000003 3608.0000000000005 78.500000000000014 82.500000000000014 84.500000000000014 89.500000000000014 42.500000000000007 37.500000000000007 110335.50000000001 87.500000000000014 635.50000000000011 701.50000000000011 714.50000000000011 602.50000000000011 577.00000000000011 23.500000000000004 28.500000000000004 29.500000000000004 2605.5000000000005 1854.0000000000002 1601.5000000000002 1402.5000000000002 1374.5000000000002 1430.5000000000002 1482.0000000000002 3063.5000000000005 1995.0000000000002 1118.5000000000002 1096.5000000000002 1921.5000000000002 2427.5000000000005 1317.0000000000002 54.500000000000007 5.5000000000000009 8934.5000000000018 5920.5000000000009 6204.5000000000009 6566.5000000000009 91.500000000000014 97.500000000000014 103.50000000000001 3227.5000000000005 10576.000000000002 12076.500000000002 14791.000000000002 23475.500000000004 25292.000000000004 20913.000000000004 668.50000000000011 9.5000000000000018 30.500000000000004 31.500000000000004 33.500000000000007 34.500000000000007 4485.5000000000009 4087.5000000000005 3834.5000000000005 26.500000000000004 4868.5000000000009 5063.0000000000009 69.500000000000014 225.50000000000003 200.50000000000003 229.50000000000003 10.500000000000002 80.500000000000014 650.50000000000011 302.50000000000006 114.50000000000001 122.50000000000001 125.50000000000001 119.50000000000001 52.500000000000007 496.50000000000006 419.50000000000006 366.00000000000006 434.50000000000006 443.50000000000006 345.50000000000006 478.00000000000006 467.00000000000006 25.500000000000004 433931.00000000006 3965.0000000000005 5440.0000000000009 5201.5000000000009 18.500000000000004 284.50000000000006 46.500000000000007 47.500000000000007
decision_type=2 2 2 2 2 2 2 2 2 2 2 2 2 2 2 2 2 2 2 2 2 2 2 2 2 2 2 2 2 2 2 2 2 2 2 2 2 2 2 2 2 2 2 2 2 2 2 2 2 2 2 2 2 2 2 2 2 2 2 2 2 2 2 2 2 2 2 2 2 2 2 2 2 2 2 2 2 2 2 2 2 2 2 2 2 2 2 2 2 2 2 2 2 2 2 2 2 2 2 2 2 2 2 2 2 2 2 2 2 2 2 2 2 2 2 2 2 2 2 2 2 2 2 2 2 2
left_child=-1 2 5 7 10 -2 17 38 -7 14 11 15 18 23 24 46 -17 85 19 37 -21 22 103 44 25 26 27 28 104 31 51 122 42 -34 68 78 -29 -6 96 101 -41 45 43 -32 -14 -42 49 84 -49 50 -5 -31 93 -54 55 56 57 58 63 -59 -61 -56 65 64 -12 -57 -64 -65 108 -10 71 90 -73 -74 -43 -76 -77 -63 -22 -80 -81 83 -83 -82 102 -4 -55 -88 -89 -90 91 92 -39 117 -92 -96 -3 98 -27 -99 -87 -40 -48 -11 -9 107 -107 -106 124 110 111 114 -112 -114 -23 116 -115 -53 -15 -94 121 -97 -8 -16 -35 -126
right_child=1 3 6 4 12 8 29 9 69 21 54 -13 13 118 123 16 -18 -19 -20 20 35 109 -24 -25 -26 97 -28 36 -30 30 32 -33 33 34 -36 -37 -38 70 39 40 41 74 -44 -45 -46 -47 47 48 -50 -51 -52 52 53 86 61 62 -58 59 -60 60 -62 77 66 67 -66 -67 -68 -69 -70 -71 -72 72 73 -75 75 76 -78 -79 79 80 81 82 -84 -85 -86 100 87 88 89 -91 94 -93 119 -95 95 120 -98 99 -100 -101 -102 -103 -104 -105 105 106 -108 -109 -110 -111 112 -113 113 115 -116 -117 -118 -119 -120 -121 -122 -123 -124 -125 125 -127
leaf_value=-0.0079338140600497299 0.016623526404791974 0.039820865886149248 0.026466015422119793 0.042061837451852907 0.048497067157821969 0.01991725952990293 0.029357380467815854 0.039135382024748012 0.022463081028181963 0.040437153679567281 0.042500919265118925 0.035703969078090238 0.049236415745359502 0.042132187453949602 0.033414915952988941 0.048350377264984902 0.040807122286744435 0.025029851017806967 0.041306632014390623 0.054054682889843157 0.040236198047170608 0.037434184716681272 0.045554055345136409 0.052102896348941802 0.039337891204097114 0.031357478079614372 0.043413685531280555 0.032793761967253636 0.042090508317030609 0.026303438487439015 0.034277278817663646 0.03454942243590986 0.015407553772441566 0.031469922847438783 0.03207908397361952 0.048978412505808838 0.036737388214848829 0.045495360364671895 0.025166151531000887 0.03873523034550358 0.031432639186485957 0.037989041156654316 0.035256976865537519 0.030479237803080511 0.044191572500179271 0.024930691508203772 0.035359414062279687 0.047056693377988117 0.040882032103888466 0.045049833255732988 0.037671359955433976 0.030236022342214036 0.023603581620118656 0.030934813505737888 0.04028686318767926 0.043708541543677287 0.039056350462041221 0.049500722162481386 0.034346529302045244 0.039422846419601212 0.045651033537370503 0.045502756643567538 0.042866110822602756 0.041030083025488502 0.050262974329097036 0.048772500957436453 0.045521746323924091 0.044130010762947341 0.024711303057245278 0.024016699080128781 0.039928949627920034 0.052071121757352026 0.039275282814879547 0.045770906350129564 0.032253984603285706 0.037903029983351252 0.033653191711623932 0.041829292744375565 0.047910593430526477 0.041958736120124684 0.045795726101970663 0.035672399267627955 0.045370246003079123 0.049313606138582877 0.034343081468237384 0.029425935134721689 0.021106091168690343 0.030791328556038351 0.021938950433685163 0.029259351364026211 0.041426065855380188 0.046705151578261966 0.037525450802641469 0.032014881534934266 0.047196738719591791 0.043388933407022004 0.03554251940149785 0.028309593080858349 0.035911247321399241 0.034635432225063094 0.027104638702952533 0.030269207958381728 0.040146830548132922 0.037176878261324701 0.036024929744307294 0.040773220316545372 0.035910775891055062 0.028852808826603696 0.031733669288523593 0.034813306577225749 0.041791695761332043 0.036765674184879367 0.032607638621532667 0.038439574718636155 0.040639511992485278 0.037653156485149261 0.043916012156646603 0.026572710817074963 0.046485228379285454 0.042606087575239766 0.044017978183660503 0.036797744694466138 0.03182039257985711 0.036852271152796871 0.019894653396957653 0.029089529472019357
leaf_weight=49040.73378597018 747.55974379974941 18.33952412661165 229.70061484037433 161.52525950176641 44.73134758323431 393.51734889915679 133.68242144561373 62.830926405265927 650.21088474837597 68.067064844071865 92.453199392184615 80.062364189885557 91.636471626348794 29.340084934607148 88.326326902490109 43.645168978720903 37.658228656277061 293.52470376854762 44.867754772305489 87.217626564204693 14.950259045697747 59.390862025786191 55.053619019687176 83.812240451574326 175.79718276578933 17.876874034089269 43.569122126325965 51.235252542421222 75.558873327448964 71.827117745298892 69.972363603767008 117.04756513237953 8.8380604976555315 25.390349174849689 223.68355296063237 57.309029754251242 321.47701628040522 54.352603558450937 22.320831493940204 42.359994035214186 33.358501494862139 43.963499998673797 62.91438265889883 118.6016378661152 27.049746330827475 19.758784213103354 20.474396636709571 38.058277094736695 292.94411952700466 90.787802236154675 53.804300345480442 101.13271226268262 24.327949692960829 41.375054639298469 146.56700476258993 34.068222016096115 138.27207148633897 41.199650933966041 19.204309836030006 30.196366005577147 111.19711767882109 61.077650982886553 192.56407122593373 176.50701328227296 35.537147853523493 59.537772102281451 115.31186949461699 73.898516779765487 24.707882020622492 259.08762046659831 18.377114260569215 33.151053916662931 30.847401384264231 249.66970485635102 75.86161203449592 77.668092385865748 67.826674996875226 57.794193740934134 82.239858398213983 93.47453881194815 174.38159092795104 12.969815657008438 256.79831868223846 57.563739569857717 40.457192230038345 109.93753879657015 26.68169588316232 76.167884942144156 17.871949812863022 24.046364410314709 61.270304463803768 115.07141344249249 18.279708310030401 80.525285483337939 42.402924545109272 28.666963553987443 187.56209226185456 13.98546239454299 117.67557437811047 18.776649013161659 113.27814976475202 23.463910854421556 34.261192220263183 44.982266638893634 52.098978868685663 55.634927510283887 70.71123205544427 17.809499225113541 36.991687850793824 18.281700915656984 66.278703829273582 150.35746261011809 19.825474389828742 53.773890162818134 109.59738473873585 49.535037936642766 40.567126599140465 27.045451608952135 29.953071089461446 25.48610359011218 105.95249984785914 15.443205818999557 64.949057249352336 29.357760052196681 14.035731036914511 102.27378325629979
leaf_count=2190256 11723 132 2093 684 127 5226 1154 278 7329 322 408 530 206 135 648 135 194 3424 161 201 99 333 173 168 794 186 194 423 353 885 465 830 194 188 1657 140 1989 202 246 200 275 198 372 1076 105 199 130 110 1268 310 245 771 306 318 721 169 761 110 140 185 391 219 819 935 103 174 335 241 292 2913 124 104 174 876 539 493 533 311 247 412 542 122 1037 143 325 970 314 576 298 250 347 349 140 659 141 126 1112 138 768 171 918 201 180 356 356 197 435 196 310 172 241 855 136 379 441 233 177 329 126 138 312 168 498 171 200 954
